Age,PotentialParentAge,ChildrenAtAge,MarriedAtAge,IsMarried,Country_Germany,Country_India,Country_Romania,Country_United Kingdom,Country_United States,Country_Uruguay,SleepPattern_irregular,SleepPattern_regular,SleepHourAverage_5-6 hours,SleepHourAverage_7-8 hours,StressLevelRating_low,StressLevelRating_moderate,StressReductionActivityFrequency_never,StressReductionActivityFrequency_rarely,StressReductionActivityFrequency_sometimes,OutsideFoodFrequency_Once a year,OutsideFoodFrequency_once every month,OutsideFoodFrequency_once every week,DrasticWeightIncrease_Yes,PackagedFoodFrequency_frequently,PackagedFoodFrequency_rarely,PackagedFoodFrequency_sometimes,SmokeOrTobacco_Yes,Alcohol_every week,Alcohol_everyday,Alcohol_never,Alcohol_rarely,Recreational_Yes,LiveNearToxicity_Yes,StressOvercomeFastFood_Yes,PeriodSkipFrequency_never,PeriodSkipFrequency_sometimes,ContraceptiveIntake_Yes,Accuracy
0.6384471119240424,-0.6367270584007628,0.12649655946372704,0.36700057957292614,-26.09556717988657,0.0,0.0,0.0,0.0,0.0,0.0,-8.753914596828261,-7.530744832113353,-7.10095988359011,-16.264296731358964,7.519850163763487,0.0,19.64023955740744,6.450617032597694,24.127199499961375,-14.826387728112802,0.0,4.734264830763632,10.38111119720425,-5.329595209434475,2.809621897393399,0.0,0.0,14.105478369251076,0.0,-5.546388713280649,-6.137157361215657,0.0,-9.06892210132882,0.6216468606097395,-8.595514606425692,-1.2180152095163737,0.0,0.75
0.36011037338191565,-0.35943341119358724,0.05689786120531121,0.2784381007269056,-16.215304018535736,0.0,0.0,0.0,0.0,0.0,0.0,-4.724753684539975,-4.735240059862473,-3.979864629121027,-8.509979852865275,3.293701684941929,0.0,10.070797435064318,3.9953043678073463,13.165240613915206,-8.834504373674617,0.0,2.2902769352931287,6.026280988234022,-3.106420754319432,0.8350102710054756,0.0,0.0,9.084114101202019,0.0,-2.0707006431461714,-2.785457532640613,0.0,-6.203503395509017,0.23091746814296166,-4.491594304174427,-0.33145829034527086,0.0,0.75
0.2638318810769532,-0.2603952639053932,0.04362641490045617,0.20131178096820124,-11.752666485021118,0.0,0.0,0.0,0.0,0.0,0.0,-3.237434897443111,-3.5995362350383466,-3.0266339042223604,-6.175048772407891,1.92100601518923,0.0,7.228301426607399,3.2572131298856672,9.950755250793032,-6.70457148864857,0.0,1.639855801763674,4.527520081903923,-2.469869071314828,0.4370739399022366,0.0,0.0,6.750752507063911,0.0,-1.4999314201798088,-2.2634110735442996,0.0,-5.2340342362959795,0.0814231627061054,-3.442747556190957,0.0,0.0,0.75
0.20942349007745822,-0.20268096084641543,0.033865890670584854,0.14217029629457503,-8.683167678258648,0.0,0.0,0.0,0.0,0.0,0.0,-2.3920067834826813,-2.957866383582788,-2.456854657167273,-4.784748741702446,1.1228034892026884,0.0,5.6545515552959875,2.747602943418252,8.139436295752315,-5.250883681805115,0.001417529451260672,1.3155647426630952,3.6152360656058335,-2.0583924480369338,0.3372912336000428,0.0,0.0,5.246744615981793,0.0,-1.2245939012183513,-2.053357137869445,0.0,-4.5947785222294195,0.020886482622397114,-2.9988772907715986,0.0,0.0,0.75
0.17278366521932362,-0.16458265532365796,0.026600738952335213,0.08807815528860932,-6.168336829884673,0.0,0.0,0.0,0.0,0.0,0.0,-1.7769273761097337,-2.514153581795923,-2.058004798289206,-3.7990389180481694,0.49264256616980845,0.0,4.597990297175865,2.385883975940431,6.953149905418715,-4.095758591389721,0.07546909594174285,1.1562301317885428,2.967448277799733,-1.7591152279638904,0.34311022037121053,0.0,0.0,4.038587469717998,0.0,-1.1924354098043854,-2.0550808577293225,0.0,-4.112366261427798,0.027787195025203437,-2.7424481011791157,0.0,0.0,0.75
0.1487331270239175,-0.1367591494734561,0.02110866224676806,0.04319428881117319,-4.198581828745502,0.0,0.0,0.0,0.0,0.0,0.0,-1.3168544515525846,-2.208466267184089,-1.738110120391136,-3.0399092422219134,0.0,0.0,3.816493595753194,2.104588603868878,6.116154474485971,-3.312661631862928,0.025797402285162783,0.9368205835599365,2.4940807076509115,-1.528305314990176,0.3875797708066562,0.0,0.0,3.0967380699888754,0.0,-1.210384050416071,-2.1104319068638513,0.0,-3.748585791805951,0.0613958587953676,-2.567888617916696,0.0,0.0,0.75
0.13091118268439694,-0.11828377137321255,0.017289387892809528,0.010586348499025875,-2.753180667843958,0.0,0.0,0.0,0.0,0.0,0.0,-1.0636128855799378,-2.0028365477910897,-1.502280285147037,-2.6401771687253563,0.0,0.0,3.2652333989756217,1.9638850333581928,5.566637412137736,-2.6423282401262194,0.0,0.7832879509336863,2.1367635816051638,-1.3890635389086257,0.3941224380306157,0.0,0.0,2.5249942769036373,0.0,-1.2264862639331968,-2.0474321176692203,0.0,-3.3573265229551716,0.11363457245145529,-2.4017450278483574,0.0,0.0,0.7916666666666666
0.11975313352624485,-0.10669063155167398,0.012562268227368192,0.0,-2.0453550266439997,0.0,0.0,0.0,0.0,0.0,0.0,-0.8990249128380088,-1.894498402382902,-1.3307932490948138,-2.3384842267178727,0.0,0.0,2.7437155392690573,1.7646187760823109,5.05495029108173,-2.0735827147582495,0.0,0.6668045099958428,1.883164487048691,-1.2644534714203484,0.3633824571356795,0.0,0.0,2.220764610801022,0.0,-1.1124034418423314,-1.8661677053161978,0.0,-3.026958143191111,0.1457006666162028,-2.2319049212185638,0.0,0.0,0.6666666666666666
0.11238638646070524,-0.09736152479796634,0.008581072022168757,-0.005551790003359754,-1.5732392974238214,0.0,-0.06660690766442283,0.0,0.0,0.0,0.0,-0.7786312480560954,-1.828791773938178,-1.1769462364067007,-2.0788957806347805,0.0,0.0,2.264068020219254,1.5663541858249057,4.608051404183656,-1.582896531439093,0.0,0.5584269271452442,1.6841402531000602,-1.1431716540269785,0.33280621029801216,0.0,0.0,1.975309411935884,0.0,-0.9647148836242304,-1.657418180934756,0.0,-2.7379036929720892,0.1773983013520256,-2.0856345874303304,0.0,0.0,0.6666666666666666
0.10597698231408807,-0.08871951142950811,0.007092917178105039,-0.02170154084031381,-0.8797847485284251,0.0,-0.15409898673407782,0.0,0.0,0.0,0.0,-0.6642609088081141,-1.7648552068658125,-1.0242930087960989,-1.8428125800009678,0.0,0.0,1.8559077587847412,1.4238471400521686,4.270293099268166,-1.113363875397495,0.0,0.46738961307642235,1.5165380983255112,-1.0453653242109293,0.3216378060584417,0.0,0.0,1.6617337836198547,0.0,-0.9067401765133649,-1.5306999861161983,0.0,-2.477812098625596,0.21958084821404283,-1.9958759097817935,0.0,0.0,0.6666666666666666
0.10097863749002801,-0.08188271258722621,0.006274089378807747,-0.03658816021018423,-0.26680449949901447,0.0,-0.2274260442681033,0.0,0.0,0.0,0.0,-0.5678011646539463,-1.7213971336826968,-0.8873680836965019,-1.6359118098096126,0.0,0.0,1.4770741121504767,1.2881099369556357,3.9792165045273866,-0.6607608633616517,0.0,0.3885686695901171,1.383714415064625,-0.9658116433847534,0.3055145146877472,0.0,0.0,1.3925966360482707,0.0,-0.8527458763638418,-1.4078944435037244,0.0,-2.2410549184685946,0.253579138591072,-1.9278573737681919,0.0,0.0,0.6666666666666666
0.09841182208160687,-0.07705435956946004,0.005849038450987574,-0.04149795142694914,0.0,0.0,-0.33461305234882005,0.0,0.0,0.0,0.0,-0.5013919530778365,-1.714095306539408,-0.7612207494731529,-1.4508797527925688,0.0,0.0,1.0838796311454402,1.1266968119972134,3.687130947441849,-0.23906764506005673,0.0,0.30798459783748944,1.2834294879700792,-0.8818203342358019,0.26892763488281374,0.0,0.0,1.2278085120402173,0.0,-0.7042612282328238,-1.2015371152843184,0.0,-2.024381272759338,0.26638359656215066,-1.8538061865744,0.0,0.0,0.6666666666666666
0.09773841634323496,-0.0738014920168957,0.005326486870196713,-0.03875771578682673,0.0,0.0,-0.4628017774686173,0.0,0.0,0.0,0.0,-0.4441465933862724,-1.720954688412901,-0.6441099469708382,-1.2819523895821965,0.0,0.0,0.7082618820760431,0.9537079960458393,3.396528575035846,0.0,0.0,0.22687782559335617,1.2049025405419451,-0.7970067860177065,0.22418783572859816,0.0,0.0,1.1354922355026869,0.0,-0.49771328418693056,-0.959575623519224,0.0,-1.822010093639661,0.25908487134588537,-1.7714407424956184,0.0,0.0,0.6666666666666666
0.09759019090702482,-0.07130785779221066,0.0043048331460996256,-0.0363697945103874,0.0,0.0,-0.5756372126866522,0.0,0.0,0.0,0.0,-0.37316005460139734,-1.7166254407282322,-0.5345162580645167,-1.1232865349713457,0.0,0.0,0.39156539632497234,0.7958342093600164,3.131428056167945,0.0,0.0,0.15484636482584674,1.1357830199974164,-0.7255710022763179,0.192171223899677,0.0,0.0,1.0422374242247296,0.0,-0.3239710253209602,-0.7681774994750413,0.0,-1.6272505529872756,0.24565051284583986,-1.6940634535517527,0.0,0.0,0.6666666666666666
0.09764873120103543,-0.06943747663054453,0.003447225397038191,-0.03427108730626107,0.0,0.0,-0.6746419541490243,0.0,0.0,0.0,0.0,-0.30381239718616276,-1.7161056020416454,-0.4322362603720716,-0.9744182888627835,0.0,0.0,0.0971944857824285,0.6469037187124714,2.892473211909439,0.0,0.0,0.09113701553318766,1.0754802653965048,-0.6640539220157268,0.16257836429358843,0.0,0.0,0.9557477208933475,0.0,-0.16510418877384916,-0.5952701868016611,0.0,-1.4351180599336089,0.22902285642118989,-1.627590896602112,0.0,0.0,0.625
0.09678101523178308,-0.06951233208512196,0.0026898904767046804,-0.031744354899218945,0.0,0.0,-0.7383872532980467,0.0,0.0,0.0,0.0,-0.19414679770706,-1.67223098861292,-0.34317700934549145,-0.8351573432854175,-0.030725087580078088,0.0,0.0,0.5559866147380683,2.7282062442574437,0.0,0.0,0.07271761333153663,1.0265400098407815,-0.6378366442037436,0.14690206493058716,0.0,0.0,0.8186217796149595,0.0,-0.08243301212463468,-0.5043677176564774,0.0,-1.223767345336616,0.20696442966808518,-1.564432670938634,0.0,0.0,0.625
0.09555530730262911,-0.07067978206422151,0.0020130169448856826,-0.029042948708317876,0.0,0.0,-0.7845307119200086,0.0,0.0,0.0,0.0,-0.06952387900907002,-1.610711264920131,-0.26128540297220254,-0.7050078331750099,-0.0741296040804515,0.0,0.0,0.4950986434637272,2.6053145746738493,0.0,0.0,0.07719371913432477,0.9841801471581257,-0.6272670400198794,0.13835602716615744,0.0,0.0,0.6616428301107171,0.0,-0.03602533723224268,-0.45061260605561293,0.0,-1.0052642306310144,0.1822211648640525,-1.5045993606374948,0.0,0.0,0.7083333333333334
0.09478283986559032,-0.07191847519765707,0.0011104849521590603,-0.026485541973824477,0.0,0.0,-0.8107017956298408,0.0,0.0,0.0,0.0,0.0,-1.5761017855685713,-0.19626863330326993,-0.597306875005635,-0.10202475618184263,0.0,0.0,0.4411909060320127,2.5034759357038907,0.0,0.0,0.08286060698089925,0.9471727458490138,-0.5975510155021876,0.13363638285315046,0.0,0.0,0.5299948198056254,0.0,0.0,-0.3980030940907971,0.0,-0.8092748014289827,0.16324763358440073,-1.4492393860609198,0.0,0.0,0.7083333333333334
0.09452961657523279,-0.07294367428026839,0.0,-0.024336480874943466,0.0,0.0,-0.7962771725890228,0.0,0.0,0.0,0.0,0.0,-1.5701727668159209,-0.15393624802895609,-0.5158017798931446,-0.1072543157432225,0.0,0.0,0.39507470305177517,2.424827892216975,0.0,0.0,0.09110329456035501,0.9176865538157523,-0.5475414904706467,0.13090384779849532,0.0,0.0,0.4166808105283138,0.0,0.0,-0.36883688691418237,0.0,-0.6503012269994151,0.1538731256623085,-1.3968447545090763,0.0,0.0,0.7083333333333334
0.09422728403645877,-0.07402027052456804,0.0,-0.023216642211028822,0.0,0.0,-0.7798014798913472,0.0,0.0,0.0,0.0,0.0,-1.5632579681803718,-0.11229248265642205,-0.4382346707328776,-0.11013078012380868,0.0,0.0,0.3530629459845136,2.3549126181044198,0.0,0.0,0.10015996789816287,0.8919684270185378,-0.5039095985955967,0.12446418030164914,0.0,0.0,0.3024316173318706,0.0,0.0,-0.34077855881263275,0.0,-0.5015897162968854,0.14222815157524885,-1.352495809639671,0.0,0.0,0.7083333333333334
0.09400945072887695,-0.07514354260329188,0.0,-0.02213385295569484,0.0,0.0,-0.7635518598182256,0.0,0.0,0.0,0.0,0.0,-1.5587139872575924,-0.07129990948146328,-0.36178877940597565,-0.11350514370844812,0.0,0.0,0.311975967196199,2.2884149965567064,0.0,0.0,0.10878515417622786,0.8673997083227195,-0.46262604779546873,0.1179895080189673,0.0,0.0,0.19087343204049514,0.0,0.0,-0.31374043430590653,0.0,-0.36141966731606034,0.1309251229397036,-1.3105008034857215,0.0,0.0,0.7083333333333334
0.09386556721650453,-0.0763065184347285,0.0,-0.021084681973854654,0.0,0.0,-0.7474077322684228,0.0,0.0,0.0,0.0,0.0,-1.5561718501579556,-0.030918354137719258,-0.2863647618025543,-0.11731893707253971,0.0,0.0,0.27168037222951397,2.2248909272941946,0.0,0.0,0.11692017532883353,0.8437396101618068,-0.42336568916413936,0.11150938557867622,0.0,0.0,0.08180096820526729,0.0,0.0,-0.2876056240827586,0.0,-0.22893488260732747,0.12004180125878917,-1.2706675945105002,0.0,0.0,0.7083333333333334
0.09360683681953787,-0.07740097877336669,0.0,-0.02009077977114751,0.0,0.0,-0.7187750565990229,0.0,0.0,0.0,0.0,0.0,-1.5544795474574415,0.0,-0.22045602874112963,-0.11920654103043278,0.0,0.0,0.23099944058605332,2.161575975221357,0.0,0.0,0.1213262215773593,0.8223027460699913,-0.3856072461421012,0.10520036124764404,0.0,0.0,0.0,0.0,0.0,-0.2621602141251461,0.0,-0.10213418839257588,0.10868430652045434,-1.234757422270542,0.0,0.0,0.7083333333333334
0.0928070385597012,-0.07801066937432102,0.0,-0.019252451110271157,0.0,0.0,-0.651446147038815,0.0,0.0,0.0,0.0,0.0,-1.5496056220703884,0.0,-0.18516867730117356,-0.11341935582077195,0.0,0.0,0.18828813739753772,2.0916838247168683,0.0,0.0,0.11322621208192749,0.8077439535087456,-0.34729897976734797,0.09754058252599332,0.0,0.0,0.0,0.0,0.0,-0.2383048781152818,0.0,0.0,0.09497956553268944,-1.207218916618761,0.0,0.0,0.7083333333333334
0.0921898619663835,-0.07817161074959021,0.0,-0.01872248385267504,0.0,0.0,-0.5955168918142635,0.0,0.0,0.0,0.0,0.0,-1.5408982958617468,0.0,-0.15737998779332504,-0.10506971225662551,0.0,0.0,0.1506367345093179,2.021093585680896,0.0,0.0,0.097517727514439,0.8009312486551882,-0.3033700852455202,0.08112963861501196,0.0,0.0,0.0,0.0,0.0,-0.21831908053168425,0.0,0.0,0.08366142219743795,-1.1799679097594444,0.0,0.0,0.6666666666666666
0.09162928713146397,-0.07834830176160278,0.0,-0.01822552997768037,0.0,0.0,-0.5410151047560866,0.0,0.0,0.0,0.0,0.0,-1.533230640798996,0.0,-0.13005428245629153,-0.09664176315292138,0.0,0.0,0.11355643107393093,1.952654779940981,0.0,0.0,0.0820327306682015,0.7947618160509888,-0.26121524304320576,0.06473461263282144,0.0,0.0,0.0,0.0,0.0,-0.19903882229459996,0.0,0.0,0.0723715402280613,-1.153835568804364,0.0,0.0,0.6666666666666666
0.09112391908283468,-0.07854379941365686,-8.132157049155472e-06,-0.017752175628413185,0.0,0.0,-0.48782834918790496,0.0,0.0,0.0,0.0,0.0,-1.5265433091320546,0.0,-0.10310815866517052,-0.08819352262838948,0.0,0.0,0.07693576134180329,1.886139154635321,0.0,0.0,0.06677173561069748,0.789127342746672,-0.22061466704127108,0.04840523254086049,0.0,0.0,0.0,0.0,0.0,-0.18040287845359795,0.0,0.0,0.06121903129663967,-1.1286946235803825,0.0,0.0,0.6666666666666666
0.09074623365596614,-0.078752793988268,-0.0005308011193681069,-0.016852326386009517,0.0,0.0,-0.43774802531582835,0.0,0.0,0.0,0.0,0.0,-1.5225623150627605,0.0,-0.074955832071267,-0.08148893162547387,0.0,0.0,0.039678977295615606,1.8195351826041288,0.0,0.0,0.05140130345512646,0.7827133827237219,-0.1796845245141025,0.03388086682122185,0.0,0.0,0.0,0.0,0.0,-0.1625540762004169,0.0,0.0,0.051350617059486355,-1.1019433635002762,0.0,0.0,0.6666666666666666
0.09041054323361822,-0.07898181131541808,-0.0010043858091598101,-0.016022839297162292,0.0,0.0,-0.3885736319730237,0.0,0.0,0.0,0.0,0.0,-1.5193004563097556,0.0,-0.04729822489760471,-0.07464495433519068,0.0,0.0,0.002979823328130319,1.7548394474999964,0.0,0.0,0.03625430432083733,0.7769333917007676,-0.14027095500408776,0.019162645639826132,0.0,0.0,0.0,0.0,0.0,-0.1451721527071656,0.0,0.0,0.04140527355451928,-1.0762867373817442,0.0,0.0,0.6666666666666666
0.08997724245878498,-0.07920211788089936,-0.001249706543591922,-0.015474230703232958,0.0,0.0,-0.3515198971454692,0.0,0.0,0.0,0.0,0.0,-1.5124626956740415,0.0,-0.025191675920870984,-0.058857813276819895,0.0,0.0,0.0,1.7106766199533199,0.0,0.0,0.01460609569931373,0.7692921878767653,-0.10219440551800149,0.0,0.0,0.0,0.0,0.0,0.0,-0.12749726384905527,0.0,0.0,0.030213796699410322,-1.052316389226927,0.0,0.0,0.6666666666666666
0.08964455606263999,-0.0795735522540034,-0.0017304426751116053,-0.01471479279995356,0.0,0.0,-0.32745100820010953,0.0,0.0,0.0,0.0,0.0,-1.5054508811747438,0.0,-0.005262095555526412,-0.045192705526423745,0.0,0.0,0.0,1.6715001105344147,0.0,0.0,0.0,0.7553799847615865,-0.05608254218957247,0.0,0.0,0.0,0.0,0.0,0.0,-0.1113965065969983,0.0,0.0,0.02173597533753195,-1.0275983466749377,0.0,0.0,0.6666666666666666
0.08939445464851618,-0.08019590352435474,-0.0019691255527396227,-0.01411622920973002,0.0,0.0,-0.306773880732019,0.0,0.0,0.0,0.0,0.0,-1.4938721115220583,0.0,0.0,-0.026933244507083242,0.0,0.0,0.0,1.6351234892766218,0.0,0.0,0.0,0.7423914202742629,-0.013223877001935119,0.0,0.0,0.0,0.0,0.0,0.0,-0.093962580387804,0.0,0.0,0.01309308494382852,-1.0033211970272429,0.0,0.0,0.6666666666666666
0.0888693631168625,-0.08041033982678927,-0.0019647850027531386,-0.013850826579236204,0.0,0.0,-0.28390766987902605,0.0,0.0,0.0,0.0,0.0,-1.4789102406524661,0.0,0.0,0.0,0.0,0.0,0.0,1.6081187870807885,0.0,0.0,0.0,0.7280290226612728,0.0,0.0,0.0,0.0,0.0,0.0,0.0,-0.07596153344706416,0.0,0.0,0.007710066142299398,-0.9881341308697575,0.0,0.0,0.6666666666666666
0.08824579623332762,-0.08046549431597295,-0.0019872330963198598,-0.013625084822262795,0.0,0.0,-0.25618945137939786,0.0,0.0,0.0,0.0,0.0,-1.463990801275171,0.0,0.0,0.0,0.0,0.0,0.0,1.5839683771639734,0.0,0.0,0.0,0.7127674592619819,0.0,0.0,0.0,0.0,0.0,0.0,0.0,-0.060024142355031555,0.0,0.0,0.0033039605202135752,-0.9745572710985738,0.0,0.0,0.6666666666666666
0.08766121891150114,-0.08052331842936111,-0.002016323273465437,-0.013411067713171286,0.0,0.0,-0.22976526584091464,0.0,0.0,0.0,0.0,0.0,-1.44935136654909,0.0,0.0,0.0,0.0,0.0,0.0,1.5600523940036308,0.0,0.0,0.0,0.6974858626618374,0.0,0.0,0.0,0.0,0.0,0.0,0.0,-0.044390506587008625,0.0,0.0,0.0,-0.9611484272132703,0.0,0.0,0.6666666666666666
0.0871102601300777,-0.08059031435213855,-0.0020775477268149744,-0.013166063443649649,0.0,0.0,-0.20512580077543913,0.0,0.0,0.0,0.0,0.0,-1.4342702149600293,0.0,0.0,0.0,0.0,0.0,0.0,1.5358471730345176,0.0,0.0,0.0,0.6813226328967363,0.0,0.0,0.0,0.0,0.0,0.0,0.0,-0.028891896163306646,0.0,0.0,0.0,-0.9476254452586975,0.0,0.0,0.6666666666666666
0.08658988681515604,-0.08065483188316352,-0.002131195883456808,-0.012947481907001953,0.0,0.0,-0.18132068743197757,0.0,0.0,0.0,0.0,0.0,-1.4196770030954553,0.0,0.0,0.0,0.0,0.0,0.0,1.512042462875952,0.0,0.0,0.0,0.6655217143199067,0.0,0.0,0.0,0.0,0.0,0.0,0.0,-0.013729706821502855,0.0,0.0,0.0,-0.9344025188341489,0.0,0.0,0.6666666666666666
0.0860991370094244,-0.08070916703825529,-0.002182622187536525,-0.012757088903761194,0.0,0.0,-0.15821817575534805,0.0,0.0,0.0,0.0,0.0,-1.4054853705421706,0.0,0.0,0.0,0.0,0.0,0.0,1.488502013539409,0.0,0.0,0.0,0.6499091006736609,0.0,0.0,0.0,0.0,0.0,0.0,0.0,0.0,0.0,0.0,0.0,-0.9213684569496554,0.0,0.0,0.6666666666666666
0.08568137402071238,-0.08074106311981925,-0.002225149682154857,-0.01270236773345291,0.0,0.0,-0.1339314684823959,0.0,0.0,0.0,0.0,0.0,-1.3912380851029966,0.0,0.0,0.0,0.0,0.0,0.0,1.4642350958811354,0.0,0.0,0.0,0.6327106669220103,0.0,0.0,0.0,0.0,0.0,0.0,0.0,0.0,0.0,0.0,0.0,-0.90709644803764,0.0,0.0,0.6666666666666666
0.08527302212188109,-0.08075880557846236,-0.0022640298256178257,-0.012654788365476335,0.0,0.0,-0.11036225662898944,0.0,0.0,0.0,0.0,0.0,-1.377244292306679,0.0,0.0,0.0,0.0,0.0,0.0,1.4402694151888393,0.0,0.0,0.0,0.6158233660731556,0.0,0.0,0.0,0.0,0.0,0.0,0.0,0.0,0.0,0.0,0.0,-0.8932071175697375,0.0,0.0,0.6666666666666666
0.08488750392285578,-0.0807807413275372,-0.0023000052976889034,-0.012622304790981576,0.0,0.0,-0.08736101084187044,0.0,0.0,0.0,0.0,0.0,-1.36363223876871,0.0,0.0,0.0,0.0,0.0,0.0,1.4167069759834852,0.0,0.0,0.0,0.5992528858926952,0.0,0.0,0.0,0.0,0.0,0.0,0.0,0.0,0.0,0.0,0.0,-0.8795617553835262,0.0,0.0,0.625
0.08451898943805457,-0.08080070498401111,-0.002335366946608206,-0.012597717859844227,0.0,0.0,-0.0649367061289928,0.0,0.0,0.0,0.0,0.0,-1.3503474339447592,0.0,0.0,0.0,0.0,0.0,0.0,1.3934408799149003,0.0,0.0,0.0,0.5829806822217796,0.0,0.0,0.0,0.0,0.0,0.0,0.0,0.0,0.0,0.0,0.0,-0.8661834331473419,0.0,0.0,0.625
0.08416484753726677,-0.08081785643494228,-0.0023682959136057543,-0.01258260814068775,0.0,0.0,-0.043050877511254665,0.0,0.0,0.0,0.0,0.0,-1.3373387818110567,0.0,0.0,0.0,0.0,0.0,0.0,1.3705081320124046,0.0,0.0,0.0,0.5669909119556056,0.0,0.0,0.0,0.0,0.0,0.0,0.0,0.0,0.0,0.0,0.0,-0.8530674506751755,0.0,0.0,0.625
0.08382574677899327,-0.08083424911215722,-0.002399394313198597,-0.012575634893024733,0.0,0.0,-0.021663110722282334,0.0,0.0,0.0,0.0,0.0,-1.3246196748343724,0.0,0.0,0.0,0.0,0.0,0.0,1.3478943791259534,0.0,0.0,0.0,0.5512663436745695,0.0,0.0,0.0,0.0,0.0,0.0,0.0,0.0,0.0,0.0,0.0,-0.8402123442526964,0.0,0.0,0.625
0.08350321187025142,-0.08085250582861274,-0.0024301109855256946,-0.012576899125741751,0.0,0.0,-0.0007303590092503015,0.0,0.0,0.0,0.0,0.0,-1.3121780095357145,0.0,0.0,0.0,0.0,0.0,0.0,1.3255837628081852,0.0,0.0,0.0,0.5357920399954066,0.0,0.0,0.0,0.0,0.0,0.0,0.0,0.0,0.0,0.0,0.0,-0.8275899904038075,0.0,0.0,0.5833333333333334
0.08316036389141727,-0.08041369299101084,-0.0027787349192514147,-0.012169354122252727,0.0,0.0,0.0,0.0,0.0,0.0,0.0,0.0,-1.2987771278100892,0.0,0.0,0.0,0.0,0.0,0.0,1.3031558714414673,0.0,0.0,0.0,0.5249499133804029,0.0,0.0,0.0,0.0,0.0,0.0,0.0,0.0,0.0,0.0,0.0,-0.8139074247980469,0.0,0.0,0.5833333333333334
0.08281576901449193,-0.07995865071451273,-0.0031317118075924696,-0.011751350077294125,0.0,0.0,0.0,0.0,0.0,0.0,0.0,0.0,-1.285468443043683,0.0,0.0,0.0,0.0,0.0,0.0,1.2810105273685046,0.0,0.0,0.0,0.5143571247284827,0.0,0.0,0.0,0.0,0.0,0.0,0.0,0.0,0.0,0.0,0.0,-0.800419494175916,0.0,0.0,0.5833333333333334
0.08248006989435408,-0.07951445958746492,-0.0034799710590807244,-0.011340968995942257,0.0,0.0,0.0,0.0,0.0,0.0,0.0,0.0,-1.2723717006248612,0.0,0.0,0.0,0.0,0.0,0.0,1.2591689014948901,0.0,0.0,0.0,0.5038957130333719,0.0,0.0,0.0,0.0,0.0,0.0,0.0,0.0,0.0,0.0,0.0,-0.7870714638196035,0.0,0.0,0.5833333333333334
0.08215146237131922,-0.07907891017266037,-0.0038205727619042484,-0.01094036076031922,0.0,0.0,0.0,0.0,0.0,0.0,0.0,0.0,-1.2594613326176352,0.0,0.0,0.0,0.0,0.0,0.0,1.2376387917614287,0.0,0.0,0.0,0.4935413718923661,0.0,0.0,0.0,0.0,0.0,0.0,0.0,0.0,0.0,0.0,0.0,-0.7738897742919991,0.0,0.0,0.5833333333333334
0.08182128738224913,-0.07864361890492327,-0.004153399270083467,-0.0105443167215972,0.0,0.0,0.0,0.0,0.0,0.0,0.0,0.0,-1.2466401166020893,0.0,0.0,0.0,0.0,0.0,0.0,1.2163533273327818,0.0,0.0,0.0,0.4832775991516203,0.0,0.0,0.0,0.0,0.0,0.0,0.0,0.0,0.0,0.0,0.0,-0.7609315383632544,0.0,0.0,0.5833333333333334
0.08149945281429571,-0.07821790582295365,-0.004481872714282338,-0.010155718140184894,0.0,0.0,0.0,0.0,0.0,0.0,0.0,0.0,-1.2340177385463933,0.0,0.0,0.0,0.0,0.0,0.0,1.1953673792316575,0.0,0.0,0.0,0.4731265871641546,0.0,0.0,0.0,0.0,0.0,0.0,0.0,0.0,0.0,0.0,0.0,-0.7481148010534997,0.0,0.0,0.5833333333333334
0.08118250062032656,-0.07779904435323234,-0.004803499490512233,-0.009774142775406617,0.0,0.0,0.0,0.0,0.0,0.0,0.0,0.0,-1.2215448710364694,0.0,0.0,0.0,0.0,0.0,0.0,1.1746340583157604,0.0,0.0,0.0,0.4630695813360075,0.0,0.0,0.0,0.0,0.0,0.0,0.0,0.0,0.0,0.0,0.0,-0.7354466273377257,0.0,0.0,0.5833333333333334
0.08087036436187864,-0.07738662187425294,-0.0051210559295786495,-0.00939759871000491,0.0,0.0,0.0,0.0,0.0,0.0,0.0,0.0,-1.2092286509445611,0.0,0.0,0.0,0.0,0.0,0.0,1.1541523391371142,0.0,0.0,0.0,0.4531064892606947,0.0,0.0,0.0,0.0,0.0,0.0,0.0,0.0,0.0,0.0,0.0,-0.7229290850402671,0.0,0.0,0.5833333333333334
0.08055963505174597,-0.07697677955487207,-0.005431930167010807,-0.009026839337806482,0.0,0.0,0.0,0.0,0.0,0.0,0.0,0.0,-1.1970072375527538,0.0,0.0,0.0,0.0,0.0,0.0,1.1339052991719054,0.0,0.0,0.0,0.4432314190340898,0.0,0.0,0.0,0.0,0.0,0.0,0.0,0.0,0.0,0.0,0.0,-0.7105965193567438,0.0,0.0,0.5833333333333334
0.08025749099464373,-0.0765774937490888,-0.0057380094263709165,-0.00866349703365928,0.0,0.0,0.0,0.0,0.0,0.0,0.0,0.0,-1.1849908096943027,0.0,0.0,0.0,0.0,0.0,0.0,1.1139039605813457,0.0,0.0,0.0,0.43346537542548225,0.0,0.0,0.0,0.0,0.0,0.0,0.0,0.0,0.0,0.0,0.0,-0.6983476037421941,0.0,0.0,0.5833333333333334
0.07995807485454211,-0.07618180700546397,-0.006040388868466369,-0.00830373585951841,0.0,0.0,0.0,0.0,0.0,0.0,0.0,0.0,-1.1730819755635506,0.0,0.0,0.0,0.0,0.0,0.0,1.0941241674411972,0.0,0.0,0.0,0.4237630690412886,0.0,0.0,0.0,0.0,0.0,0.0,0.0,0.0,0.0,0.0,0.0,-0.6862662188311517,0.0,0.0,0.5833333333333334
0.07966352847571061,-0.07579244325132654,-0.006338416268184577,-0.007949278662623342,0.0,0.0,0.0,0.0,0.0,0.0,0.0,0.0,-1.1613062254797177,0.0,0.0,0.0,0.0,0.0,0.0,1.074565450191035,0.0,0.0,0.0,0.41415216458555076,0.0,0.0,0.0,0.0,0.0,0.0,0.0,0.0,0.0,0.0,0.0,-0.6742995776159737,0.0,0.0,0.5833333333333334
0.07937167027358227,-0.07540741815106017,-0.006629936709029237,-0.0076009827128144195,0.0,0.0,0.0,0.0,0.0,0.0,0.0,0.0,-1.1496395273294726,0.0,0.0,0.0,0.0,0.0,0.0,1.0552034952558187,0.0,0.0,0.0,0.4046278168774072,0.0,0.0,0.0,0.0,0.0,0.0,0.0,0.0,0.0,0.0,0.0,-0.6624723805732262,0.0,0.0,0.5833333333333334
0.07908493313289396,-0.07502839116093717,-0.006919911620740477,-0.007255544720429458,0.0,0.0,0.0,0.0,0.0,0.0,0.0,0.0,-1.138121810960631,0.0,0.0,0.0,0.0,0.0,0.0,1.0360671866224689,0.0,0.0,0.0,0.3951762210751159,0.0,0.0,0.0,0.0,0.0,0.0,0.0,0.0,0.0,0.0,0.0,-0.6507593544532553,0.0,0.0,0.5416666666666666
0.0788011271794413,-0.07465388935291019,-0.007204353555647364,-0.006915426883771253,0.0,0.0,0.0,0.0,0.0,0.0,0.0,0.0,-1.126725167498957,0.0,0.0,0.0,0.0,0.0,0.0,1.0171100321480222,0.0,0.0,0.0,0.38581127504066987,0.0,0.0,0.0,0.0,0.0,0.0,0.0,0.0,0.0,0.0,0.0,-0.6391533469672636,0.0,0.0,0.5416666666666666
0.07852237834874902,-0.0742850760454125,-0.00748657942397417,-0.006578873735367401,0.0,0.0,0.0,0.0,0.0,0.0,0.0,0.0,-1.115431449733879,0.0,0.0,0.0,0.0,0.0,0.0,0.9983444678051699,0.0,0.0,0.0,0.3765040255969809,0.0,0.0,0.0,0.0,0.0,0.0,0.0,0.0,0.0,0.0,0.0,-0.6276760525024249,0.0,0.0,0.5416666666666666
0.07824749415087572,-0.0739218915507492,-0.007764305506656267,-0.006247096933343964,0.0,0.0,0.0,0.0,0.0,0.0,0.0,0.0,-1.1042596355400056,0.0,0.0,0.0,0.0,0.0,0.0,0.9797724232541694,0.0,0.0,0.0,0.3672751362944804,0.0,0.0,0.0,0.0,0.0,0.0,0.0,0.0,0.0,0.0,0.0,-0.6162970204761085,0.0,0.0,0.5416666666666666
0.07797581102482624,-0.07356312350061282,-0.008038753637652834,-0.005918716567431486,0.0,0.0,0.0,0.0,0.0,0.0,0.0,0.0,-1.0931987345345937,0.0,0.0,0.0,0.0,0.0,0.0,0.9613648117295823,0.0,0.0,0.0,0.35811740892221383,0.0,0.0,0.0,0.0,0.0,0.0,0.0,0.0,0.0,0.0,0.0,-0.6050172152694288,0.0,0.0,0.5416666666666666
0.07770746953411034,-0.07320846359946304,-0.008309326611096608,-0.00559466571849874,0.0,0.0,0.0,0.0,0.0,0.0,0.0,0.0,-1.0822379122827508,0.0,0.0,0.0,0.0,0.0,0.0,0.9431388702004743,0.0,0.0,0.0,0.34902385537377273,0.0,0.0,0.0,0.0,0.0,0.0,0.0,0.0,0.0,0.0,0.0,-0.5938692809238229,0.0,0.0,0.5416666666666666
0.07744327036781148,-0.07285893442298282,-0.00857859907568598,-0.005272701111852171,0.0,0.0,0.0,0.0,0.0,0.0,0.0,0.0,-1.0713963540385516,0.0,0.0,0.0,0.0,0.0,0.0,0.9250675865468717,0.0,0.0,0.0,0.3399926778435226,0.0,0.0,0.0,0.0,0.0,0.0,0.0,0.0,0.0,0.0,0.0,-0.5827801181431582,0.0,0.0,0.5416666666666666
0.0771828067157742,-0.07251439695204677,-0.008841519271520675,-0.004957582936573268,0.0,0.0,0.0,0.0,0.0,0.0,0.0,0.0,-1.0606490417118408,0.0,0.0,0.0,0.0,0.0,0.0,0.9071673648104192,0.0,0.0,0.0,0.33104341391037984,0.0,0.0,0.0,0.0,0.0,0.0,0.0,0.0,0.0,0.0,0.0,-0.5718102117390993,0.0,0.0,0.5416666666666666
0.0769259106584901,-0.0721745574336303,-0.009104567892030839,-0.004642981614837309,0.0,0.0,0.0,0.0,0.0,0.0,0.0,0.0,-1.0500135397319732,0.0,0.0,0.0,0.0,0.0,0.0,0.8894228594908901,0.0,0.0,0.0,0.32213952286360636,0.0,0.0,0.0,0.0,0.0,0.0,0.0,0.0,0.0,0.0,0.0,-0.5609176387597097,0.0,0.0,0.5416666666666666
0.07667271595249922,-0.07183914197644543,-0.009363963619247661,-0.004332622333668006,0.0,0.0,0.0,0.0,0.0,0.0,0.0,0.0,-1.0394657955272562,0.0,0.0,0.0,0.0,0.0,0.0,0.8718195699339713,0.0,0.0,0.0,0.3132932660565838,0.0,0.0,0.0,0.0,0.0,0.0,0.0,0.0,0.0,0.0,0.0,-0.5501138241793146,0.0,0.0,0.5416666666666666
0.07642134227738158,-0.07150643484870657,-0.00962059433431465,-0.004024347668410383,0.0,0.0,0.0,0.0,0.0,0.0,0.0,0.0,-1.0290137490236297,0.0,0.0,0.0,0.0,0.0,0.0,0.8543480980208411,0.0,0.0,0.0,0.30451598690941234,0.0,0.0,0.0,0.0,0.0,0.0,0.0,0.0,0.0,0.0,0.0,-0.5394008976664268,0.0,0.0,0.5416666666666666
0.07617553808605058,-0.07118076312032437,-0.009875018372190819,-0.0037197322163995588,0.0,0.0,0.0,0.0,0.0,0.0,0.0,0.0,-1.0186605866589924,0.0,0.0,0.0,0.0,0.0,0.0,0.8370428911390334,0.0,0.0,0.0,0.29579154583655554,0.0,0.0,0.0,0.0,0.0,0.0,0.0,0.0,0.0,0.0,0.0,-0.5287619493990505,0.0,0.0,0.5416666666666666
0.07593270484161883,-0.07085865192839538,-0.010127790854611105,-0.003417861217446967,0.0,0.0,0.0,0.0,0.0,0.0,0.0,0.0,-1.0084086422902132,0.0,0.0,0.0,0.0,0.0,0.0,0.8198653686054507,0.0,0.0,0.0,0.2871148672756874,0.0,0.0,0.0,0.0,0.0,0.0,0.0,0.0,0.0,0.0,0.0,-0.5181933751460015,0.0,0.0,0.5833333333333334
0.07569179169875535,-0.07053937006014864,-0.010377125957510247,-0.003118208962311172,0.0,0.0,0.0,0.0,0.0,0.0,0.0,0.0,-0.9982197553118749,0.0,0.0,0.0,0.0,0.0,0.0,0.8028171193342162,0.0,0.0,0.0,0.2784929181811074,0.0,0.0,0.0,0.0,0.0,0.0,0.0,0.0,0.0,0.0,0.0,-0.5077162349385153,0.0,0.0,0.5833333333333334
0.07545425094072285,-0.07022454005998185,-0.010625550789966775,-0.0028205368191281726,0.0,0.0,0.0,0.0,0.0,0.0,0.0,0.0,-0.9881314684917892,0.0,0.0,0.0,0.0,0.0,0.0,0.7858920216745167,0.0,0.0,0.0,0.26992776313026245,0.0,0.0,0.0,0.0,0.0,0.0,0.0,0.0,0.0,0.0,0.0,-0.497302328093401,0.0,0.0,0.5833333333333334
0.07522095837563124,-0.06991453616134938,-0.010870822941419873,-0.0025266696943106286,0.0,0.0,0.0,0.0,0.0,0.0,0.0,0.0,-0.9781361735808823,0.0,0.0,0.0,0.0,0.0,0.0,0.7690952851305081,0.0,0.0,0.0,0.26141233873210756,0.0,0.0,0.0,0.0,0.0,0.0,0.0,0.0,0.0,0.0,0.0,-0.4869644770809738,0.0,0.0,0.5833333333333334
0.07499018266323138,-0.06960779666901407,-0.011114546573552734,-0.002234512515546889,0.0,0.0,0.0,0.0,0.0,0.0,0.0,0.0,-0.9682029916304749,0.0,0.0,0.0,0.0,0.0,0.0,0.7524087748972768,0.0,0.0,0.0,0.2529362906600126,0.0,0.0,0.0,0.0,0.0,0.0,0.0,0.0,0.0,0.0,0.0,-0.47669672999492163,0.0,0.0,0.5833333333333334
0.07476201873968906,-0.06930500934411468,-0.011356778193651138,-0.0019439206263023108,0.0,0.0,0.0,0.0,0.0,0.0,0.0,0.0,-0.9583615045482382,0.0,0.0,0.0,0.0,0.0,0.0,0.735835977792526,0.0,0.0,0.0,0.2445203682739133,0.0,0.0,0.0,0.0,0.0,0.0,0.0,0.0,0.0,0.0,0.0,-0.46649043781721194,0.0,0.0,0.5833333333333334
0.0745386624337163,-0.06900725472528879,-0.011596422955318266,-0.001657500243712755,0.0,0.0,0.0,0.0,0.0,0.0,0.0,0.0,-0.948606990552986,0.0,0.0,0.0,0.0,0.0,0.0,0.7193871456098353,0.0,0.0,0.0,0.23613458007588287,0.0,0.0,0.0,0.0,0.0,0.0,0.0,0.0,0.0,0.0,0.0,-0.4563347148026141,0.0,0.0,0.5833333333333334
0.07431523065458788,-0.0687101553537994,-0.011835533734630034,-0.0013701272065847205,0.0,0.0,0.0,0.0,0.0,0.0,0.0,0.0,-0.938916173828566,0.0,0.0,0.0,0.0,0.0,0.0,0.7030239867879496,0.0,0.0,0.0,0.22779115852260268,0.0,0.0,0.0,0.0,0.0,0.0,0.0,0.0,0.0,0.0,0.0,-0.4462677987846352,0.0,0.0,0.5833333333333334
0.07409795131938766,-0.06842024766530563,-0.01207306916285015,-0.0010866402429629497,0.0,0.0,0.0,0.0,0.0,0.0,0.0,0.0,-0.9293022837303133,0.0,0.0,0.0,0.0,0.0,0.0,0.6867811134993004,0.0,0.0,0.0,0.21950723726103719,0.0,0.0,0.0,0.0,0.0,0.0,0.0,0.0,0.0,0.0,0.0,-0.43623859018148947,0.0,0.0,0.5833333333333334
0.07388234922109249,-0.06813259615255693,-0.012308814955970152,-0.000804564121372765,0.0,0.0,0.0,0.0,0.0,0.0,0.0,0.0,-0.9197766238229775,0.0,0.0,0.0,0.0,0.0,0.0,0.6706408216447074,0.0,0.0,0.0,0.21125791166132254,0.0,0.0,0.0,0.0,0.0,0.0,0.0,0.0,0.0,0.0,0.0,-0.4262651444025667,0.0,0.0,0.5833333333333334
0.07367015648478456,-0.06784937260945476,-0.012543531358924213,-0.0005239333035181435,0.0,0.0,0.0,0.0,0.0,0.0,0.0,0.0,-0.9103125728508735,0.0,0.0,0.0,0.0,0.0,0.0,0.6545895747699852,0.0,0.0,0.0,0.20304521864971992,0.0,0.0,0.0,0.0,0.0,0.0,0.0,0.0,0.0,0.0,0.0,-0.4163409084073482,0.0,0.0,0.5833333333333334
0.07346099959306947,-0.06756987794841858,-0.012775926715575352,-0.0002462098426405366,0.0,0.0,0.0,0.0,0.0,0.0,0.0,0.0,-0.9009227602746084,0.0,0.0,0.0,0.0,0.0,0.0,0.6386288871246985,0.0,0.0,0.0,0.1948820319470812,0.0,0.0,0.0,0.0,0.0,0.0,0.0,0.0,0.0,0.0,0.0,-0.40646607528270184,0.0,0.0,0.5833333333333334
0.07325610099789441,-0.067296851354888,-0.01298098300267446,0.0,0.0,0.0,0.0,0.0,0.0,0.0,0.0,0.0,-0.8915030640352452,0.0,0.0,0.0,0.0,0.0,0.0,0.6228400258845441,0.0,0.0,0.0,0.18679196360962513,0.0,0.0,0.0,0.0,0.0,0.0,0.0,0.0,0.0,0.0,0.0,-0.3967153206905068,0.0,0.0,0.5833333333333334
0.0730793766359791,-0.06706400168579482,-0.012981541097589104,0.0,0.0,0.0,0.0,0.0,0.0,0.0,0.0,0.0,-0.8816320689125758,0.0,0.0,0.0,0.0,0.0,0.0,0.6078795715009148,0.0,0.0,0.0,0.17906983197657833,0.0,0.0,0.0,0.0,0.0,0.0,0.0,0.0,0.0,0.0,0.0,-0.38736047171647037,0.0,0.0,0.5833333333333334
0.07290504483268193,-0.06683460656681925,-0.012981652763287992,0.0,0.0,0.0,0.0,0.0,0.0,0.0,0.0,0.0,-0.8718160304317114,0.0,0.0,0.0,0.0,0.0,0.0,0.5929968341148327,0.0,0.0,0.0,0.17139387869300618,0.0,0.0,0.0,0.0,0.0,0.0,0.0,0.0,0.0,0.0,0.0,-0.37804610598402755,0.0,0.0,0.5833333333333334
0.07273296533963443,-0.06660822871057405,-0.012982151545477627,0.0,0.0,0.0,0.0,0.0,0.0,0.0,0.0,0.0,-0.8620562067169264,0.0,0.0,0.0,0.0,0.0,0.0,0.578197240362398,0.0,0.0,0.0,0.1637352652064814,0.0,0.0,0.0,0.0,0.0,0.0,0.0,0.0,0.0,0.0,0.0,-0.36878607861216156,0.0,0.0,0.5833333333333334
0.07256415924303032,-0.06638577491139859,-0.012983067777628827,0.0,0.0,0.0,0.0,0.0,0.0,0.0,0.0,0.0,-0.8523614708064075,0.0,0.0,0.0,0.0,0.0,0.0,0.5634742565332085,0.0,0.0,0.0,0.1561285551896477,0.0,0.0,0.0,0.0,0.0,0.0,0.0,0.0,0.0,0.0,0.0,-0.3595583104407808,0.0,0.0,0.5833333333333334
0.07239804731179587,-0.06616669008051437,-0.012984025904927914,0.0,0.0,0.0,0.0,0.0,0.0,0.0,0.0,0.0,-0.8427187383131781,0.0,0.0,0.0,0.0,0.0,0.0,0.5488380338725806,0.0,0.0,0.0,0.14855058852980998,0.0,0.0,0.0,0.0,0.0,0.0,0.0,0.0,0.0,0.0,0.0,-0.35037970376162175,0.0,0.0,0.5833333333333334
0.07223354469093718,-0.06594950881947945,-0.01298502582436105,0.0,0.0,0.0,0.0,0.0,0.0,0.0,0.0,0.0,-0.8331286125451239,0.0,0.0,0.0,0.0,0.0,0.0,0.5342775699789878,0.0,0.0,0.0,0.1409855028479097,0.0,0.0,0.0,0.0,0.0,0.0,0.0,0.0,0.0,0.0,0.0,-0.3412471660503961,0.0,0.0,0.5833333333333334
0.07207278525376849,-0.06573683930530809,-0.01298650555429054,0.0,0.0,0.0,0.0,0.0,0.0,0.0,0.0,0.0,-0.8235946969120463,0.0,0.0,0.0,0.0,0.0,0.0,0.5197765000967506,0.0,0.0,0.0,0.1334605288234308,0.0,0.0,0.0,0.0,0.0,0.0,0.0,0.0,0.0,0.0,0.0,-0.33212927892564986,0.0,0.0,0.5833333333333334
0.07191533815555516,-0.0655283695226946,-0.012988782586599301,0.0,0.0,0.0,0.0,0.0,0.0,0.0,0.0,0.0,-0.8141262615728434,0.0,0.0,0.0,0.0,0.0,0.0,0.5053495400059153,0.0,0.0,0.0,0.12597913020928067,0.0,0.0,0.0,0.0,0.0,0.0,0.0,0.0,0.0,0.0,0.0,-0.32305435345388767,0.0,0.0,0.5833333333333334
0.07175890089733078,-0.06532147403912346,-0.01299042790419021,0.0,0.0,0.0,0.0,0.0,0.0,0.0,0.0,0.0,-0.8046961986151691,0.0,0.0,0.0,0.0,0.0,0.0,0.4909953617541688,0.0,0.0,0.0,0.11851164716280563,0.0,0.0,0.0,0.0,0.0,0.0,0.0,0.0,0.0,0.0,0.0,-0.31401874274758845,0.0,0.0,0.5833333333333334
0.07160548947920833,-0.06511797489994132,-0.012992681631902888,0.0,0.0,0.0,0.0,0.0,0.0,0.0,0.0,0.0,-0.7953290813695085,0.0,0.0,0.0,0.0,0.0,0.0,0.47670098931829963,0.0,0.0,0.0,0.11107634955545867,0.0,0.0,0.0,0.0,0.0,0.0,0.0,0.0,0.0,0.0,0.0,-0.3050198826444035,0.0,0.0,0.5833333333333334
0.07145463365239928,-0.06491776492865603,-0.012995410903416655,0.0,0.0,0.0,0.0,0.0,0.0,0.0,0.0,0.0,-0.7860085816349286,0.0,0.0,0.0,0.0,0.0,0.0,0.46247154807655916,0.0,0.0,0.0,0.1036646550401262,0.0,0.0,0.0,0.0,0.0,0.0,0.0,0.0,0.0,0.0,0.0,-0.2960374490185328,0.0,0.0,0.5833333333333334
0.0713066698595183,-0.06472086487576952,-0.012998294994736632,0.0,0.0,0.0,0.0,0.0,0.0,0.0,0.0,0.0,-0.7767283349244749,0.0,0.0,0.0,0.0,0.0,0.0,0.44830720980782457,0.0,0.0,0.0,0.09627876944986283,0.0,0.0,0.0,0.0,0.0,0.0,0.0,0.0,0.0,0.0,0.0,-0.2870958525534935,0.0,0.0,0.5833333333333334
0.07115927760372046,-0.06452503149736033,-0.013000286956304532,0.0,0.0,0.0,0.0,0.0,0.0,0.0,0.0,0.0,-0.7674945890877924,0.0,0.0,0.0,0.0,0.0,0.0,0.43418991415056796,0.0,0.0,0.0,0.08890673030893338,0.0,0.0,0.0,0.0,0.0,0.0,0.0,0.0,0.0,0.0,0.0,-0.27820302623029636,0.0,0.0,0.5833333333333334
0.0710168850333933,-0.06433494127746879,-0.013004302890494052,0.0,0.0,0.0,0.0,0.0,0.0,0.0,0.0,0.0,-0.758323102566067,0.0,0.0,0.0,0.0,0.0,0.0,0.4201374851060667,0.0,0.0,0.0,0.08158212657565109,0.0,0.0,0.0,0.0,0.0,0.0,0.0,0.0,0.0,0.0,0.0,-0.269298446829435,0.0,0.0,0.5833333333333334
0.07087609137439178,-0.06414717609459304,-0.013007843352705361,0.0,0.0,0.0,0.0,0.0,0.0,0.0,0.0,0.0,-0.7491871129203593,0.0,0.0,0.0,0.0,0.0,0.0,0.4061375729164729,0.0,0.0,0.0,0.0742611478582574,0.0,0.0,0.0,0.0,0.0,0.0,0.0,0.0,0.0,0.0,0.0,-0.2604393895080638,0.0,0.0,0.5833333333333334
0.07073753841715648,-0.06396192688028797,-0.01301159126983809,0.0,0.0,0.0,0.0,0.0,0.0,0.0,0.0,0.0,-0.7400867420446156,0.0,0.0,0.0,0.0,0.0,0.0,0.39218495531505965,0.0,0.0,0.0,0.06697714298386219,0.0,0.0,0.0,0.0,0.0,0.0,0.0,0.0,0.0,0.0,0.0,-0.25160272478651824,0.0,0.0,0.5833333333333334
0.07060082435259761,-0.06377873909650532,-0.013015423769411984,0.0,0.0,0.0,0.0,0.0,0.0,0.0,0.0,0.0,-0.7310310459618057,0.0,0.0,0.0,0.0,0.0,0.0,0.3782897481459823,0.0,0.0,0.0,0.059691103409351805,0.0,0.0,0.0,0.0,0.0,0.0,0.0,0.0,0.0,0.0,0.0,-0.2428043215845618,0.0,0.0,0.5833333333333334
