Age,PotentialParentAge,ChildrenAtAge,MarriedAtAge,IsMarried,Country_Germany,Country_India,Country_Romania,Country_United Kingdom,Country_United States,Country_Uruguay,SleepPattern_irregular,SleepPattern_regular,SleepHourAverage_5-6 hours,SleepHourAverage_7-8 hours,StressLevelRating_low,StressLevelRating_moderate,StressReductionActivityFrequency_never,StressReductionActivityFrequency_rarely,StressReductionActivityFrequency_sometimes,OutsideFoodFrequency_Once a year,OutsideFoodFrequency_once every month,OutsideFoodFrequency_once every week,DrasticWeightIncrease_Yes,PackagedFoodFrequency_frequently,PackagedFoodFrequency_rarely,PackagedFoodFrequency_sometimes,SmokeOrTobacco_Yes,Alcohol_every week,Alcohol_everyday,Alcohol_never,Alcohol_rarely,Recreational_Yes,LiveNearToxicity_Yes,StressOvercomeFastFood_Yes,PeriodSkipFrequency_never,PeriodSkipFrequency_sometimes,ContraceptiveIntake_Yes,Accuracy
0.6353671312790197,-0.6333425538175266,0.1302367421132507,0.3487381530886743,-25.60849581958632,0.0,0.0,0.0,0.0,0.0,0.0,-8.71979025734711,-7.44262654014277,-7.105262787796555,-16.323742339974878,7.538889228647255,0.0,19.743076389710666,6.499300431540202,24.250445260745426,-14.775893372068438,0.0,4.753604430600989,10.355244524894424,-5.342956474367525,2.8759442267819644,0.0,0.0,13.87480424692984,0.0,-5.787860897753963,-6.337442458043802,0.0,-9.032693420046346,0.6649819910915173,-8.648137693130524,-1.1638963248135372,0.0,0.75
0.3604750086457392,-0.35988322817311647,0.05649931964928839,0.28085942327512275,-16.280204072629612,0.0,0.0,0.0,0.0,0.0,0.0,-4.7289078004131575,-4.7447934581859235,-3.98005068095502,-8.505478823742036,3.2915475209202865,0.0,10.058632269093915,3.9880567703082748,13.150855922647478,-8.840912245738627,0.0,2.2876877496394976,6.030649985121831,-3.1048921711821844,0.8267124827702202,0.0,0.0,9.114401130749629,0.0,-2.0409625696174607,-2.7603837652404506,0.0,-6.209773602801865,0.22610553821187568,-4.48593050076251,-0.3368140953702045,0.0,0.75
0.26365734455953094,-0.2601629959168044,0.04374024493098369,0.20021948047773677,-11.72134715583459,0.0,0.0,0.0,0.0,0.0,0.0,-3.2361079313972727,-3.5962229373843417,-3.0260653980811916,-6.175505022949781,1.9221192875508686,0.0,7.232943832405417,3.260163306629713,9.95580475869271,-6.700240334397279,0.0,1.6409794870181744,4.525272824674258,-2.4700921129987425,0.4405361823230848,0.0,0.0,6.738459540439658,0.0,-1.5113345789634554,-2.2733049503002953,0.0,-5.23099826122713,0.0832342697662482,-3.445796550975261,0.0,0.0,0.75
0.2093843514115444,-0.20266660883645513,0.03387199106353212,0.1420127761096667,-8.678193024421676,0.0,0.0,0.0,0.0,0.0,0.0,-2.3916165487432934,-2.9573700036942787,-2.4568639271146515,-4.784803356514177,1.122880646253702,0.0,5.655176176563921,2.7481683595907556,8.139919406391886,-5.24901552027758,0.00263694382400812,1.3167258721174007,3.614893154375653,-2.058461217486117,0.33759931609804905,0.0,0.0,5.245033160731531,0.0,-1.226294768026767,-2.0546934228888496,0.0,-4.594284176803325,0.02109303026610962,-2.9991669808718533,0.0,0.0,0.75
0.17279582756245007,-0.16459215495784296,0.02661382886463391,0.08809975328095786,-6.1695488558775535,0.0,0.0,0.0,0.0,0.0,0.0,-1.7770857367554527,-2.514262924459168,-2.0580199496708302,-3.7991170640477856,0.4926790752169097,0.0,4.597821223437431,2.3857272057207695,6.953108374172635,-4.096124559834084,0.07536588623160989,1.1560733554660483,2.967595238348209,-1.7591200861611007,0.34300079300590536,0.0,0.0,4.039097043551793,0.0,-1.192061493892576,-2.054693680303537,0.0,-4.112347882073991,0.027741747258654737,-2.7425053879059167,0.0,0.0,0.75
0.14872810554582586,-0.13676004461677158,0.021109526677237585,0.04315752075891346,-4.197496507309274,0.0,0.0,0.0,0.0,0.0,0.0,-1.3168078025697085,-2.2083755636306712,-1.7381146309122057,-3.039981157432677,0.0,0.0,3.8165883387128665,2.1046619148105132,6.116164059325695,-3.31212049723597,0.026175551413104094,0.9372011201808729,2.4940416079015053,-1.5282674066414792,0.3876391487869792,0.0,0.0,3.0963755344386827,0.0,-1.2108065548911007,-2.1107410760201057,0.0,-3.748444748462734,0.06150839171495338,-2.5679172849211227,0.0,0.0,0.75
0.13090018407149204,-0.1182749566972506,0.017288232501072125,0.010528213669666478,-2.7512030628280737,0.0,0.0,0.0,0.0,0.0,0.0,-1.0634308680353508,-2.002604677889751,-1.5021933503913807,-2.640071123764671,0.0,0.0,3.265535085661238,1.9641748413819433,5.566890327986698,-2.6421788740424414,0.0,0.7833366818145467,2.1366634141846284,-1.389113383028743,0.39425829142526125,0.0,0.0,2.5243597217970266,0.0,-1.2271205675800652,-2.0479910492668463,0.0,-3.357310872169292,0.11373601627710321,-2.401890162030743,0.0,0.0,0.7916666666666666
0.11972664428591683,-0.10665907353348175,0.01252625544681896,0.0,-2.0438088968261026,0.0,0.0,0.0,0.0,0.0,0.0,-0.8986478109423043,-1.8940074812994743,-1.3308562370206543,-2.3382805058854434,0.0,0.0,2.744057997138669,1.7647118844244296,5.054810912096376,-2.0732233291723507,0.0,0.6668562760757131,1.8828503692869634,-1.26460070843001,0.3636595395936181,0.0,0.0,2.2199221524801676,0.0,-1.1130249028367434,-1.866933263350142,0.0,-3.0269082413899615,0.14589163407828937,-2.231958579567196,0.0,0.0,0.6666666666666666
0.11239338721312479,-0.09736051466075675,0.008576349165748873,-0.0055020918511415095,-1.5746573658969079,0.0,-0.0669416311265883,0.0,0.0,0.0,0.0,-0.7787690992809515,-1.8289611996707456,-1.1769252172041447,-2.078838097246474,0.0,0.0,2.2637664733091856,1.5661343805918593,4.607770443872139,-1.5830273184651305,0.0,0.5583340192609895,1.6842032948033847,-1.1430479968809844,0.332713598434016,0.0,0.0,1.975662980464533,0.0,-0.964140319793853,-1.6568584896342595,0.0,-2.7379919337611667,0.17732344569862604,-2.085516680731453,0.0,0.0,0.6666666666666666
0.10598528618153687,-0.0887253734489383,0.007087601928056165,-0.02164438790007968,-0.8814542564692944,0.0,-0.15435954151632136,0.0,0.0,0.0,0.0,-0.6644224551091462,-1.7650164467219511,-1.0242824870827747,-1.842859478716498,0.0,0.0,1.8556119847169252,1.423626057267424,4.270014415382596,-1.1134984378938628,0.0,0.467320254149033,1.516577374533139,-1.0451794171183357,0.321552772893579,0.0,0.0,1.6622876729152507,0.0,-0.9060732284392303,-1.5300516959290993,0.0,-2.4778572594231947,0.219524907014264,-1.9956829547794996,0.0,0.0,0.6666666666666666
0.10112837662284448,-0.08194441738036752,0.006205202086055424,-0.035635915365144835,-0.29501242264372646,0.0,-0.23286615438445626,0.0,0.0,0.0,0.0,-0.5699002623463201,-1.7239136334827276,-0.88712742293188,-1.635831900025896,0.0,0.0,1.4728904043224746,1.2845714859657433,3.9748269038377715,-0.66320687930354,0.0,0.3872843057528505,1.3842183374114725,-0.963314870607613,0.3041109861935596,0.0,0.0,1.4000888059636702,0.0,-0.8422466381949248,-1.3981731495806484,0.0,-2.2417460115834413,0.25253928153943866,-1.9251089275518194,0.0,0.0,0.6666666666666666
0.09840507819480591,-0.07706405862339512,0.005877384249052039,-0.041525744441559514,0.0,0.0,-0.3337264517686931,0.0,0.0,0.0,0.0,-0.5012796896884595,-1.713935166967898,-0.7613828773186865,-1.4510580446852877,0.0,0.0,1.0842014941229567,1.1268242140925706,3.6874385037715838,-0.23902397750171497,0.0,0.30812495855419814,1.2835696455035381,-0.8821322295110868,0.26877698104511444,0.0,0.0,1.2278990801363208,0.0,-0.7047390465093878,-1.2020387753794313,0.0,-2.02421778091272,0.26621166757945935,-1.8539884265160347,0.0,0.0,0.6666666666666666
0.09773855734028633,-0.07380427100085053,0.005326458773697898,-0.038758353777352414,0.0,0.0,-0.46259806008235416,0.0,0.0,0.0,0.0,-0.4441410063392202,-1.7209427986593833,-0.6441470166659969,-1.2819908486719496,0.0,0.0,0.7083041469081082,0.9536958135318448,3.396550695499641,0.0,0.0,0.2269097835005767,1.2049069314674663,-0.7970446482442171,0.22417685480433466,0.0,0.0,1.135541045524616,0.0,-0.4978336855974839,-0.9596930514442849,0.0,-1.8219806586975558,0.259083142533975,-1.7714405609307535,0.0,0.0,0.6666666666666666
0.09759451832335346,-0.0713100225163862,0.0042995882396732205,-0.03636699291512333,0.0,0.0,-0.5757313188028707,0.0,0.0,0.0,0.0,-0.3731654646339218,-1.716691614676371,-0.5344533490838099,-1.1232445361472128,0.0,0.0,0.39152391853997404,0.7958269855253541,3.1314208878468786,0.0,0.0,0.15483608536653165,1.1357773092151848,-0.7255316652753198,0.19217525047184317,0.0,0.0,1.0422203835863755,0.0,-0.32396654734614505,-0.7681572127729217,0.0,-1.6272964425193228,0.24566083954817644,-1.6940150908618739,0.0,0.0,0.6666666666666666
0.09764857242181714,-0.06943896745677725,0.003448463468726862,-0.03427220613250518,0.0,0.0,-0.6745920762212393,0.0,0.0,0.0,0.0,-0.3038079933459938,-1.7160812201345133,-0.4322570961545113,-0.974427777639214,0.0,0.0,0.09727442930779617,0.6469217154214588,2.8925217207862906,0.0,0.0,0.09116273795111299,1.0754905321924007,-0.6640584269062838,0.1625936866585549,0.0,0.0,0.9557033295177525,0.0,-0.16516744401232802,-0.595335912552407,0.0,-1.4351070456418293,0.22901925827972164,-1.6275975519134118,0.0,0.0,0.625
0.09678290403746055,-0.06951582547353893,0.0026915290605995694,-0.03174728719098039,0.0,0.0,-0.7383020805923891,0.0,0.0,0.0,0.0,-0.19411957183973724,-1.6722172655986003,-0.34314631320180633,-0.8351351409917612,-0.03074587732721542,0.0,0.0,0.5559760588051379,2.728222186965351,0.0,0.0,0.07275252871530004,1.026552287502301,-0.6378561971020664,0.14689915748803678,0.0,0.0,0.8185838777591202,0.0,-0.08250573622983742,-0.5044417026065419,0.0,-1.2237517305299213,0.20695558088652466,-1.564434764064812,0.0,0.0,0.625
0.09555696809110452,-0.07067971830987986,0.002010866648469785,-0.02904168283815409,0.0,0.0,-0.7846530765982561,0.0,0.0,0.0,0.0,-0.0695366667100482,-1.6107363338813214,-0.26126384506413747,-0.7049938172562495,-0.07412625044094624,0.0,0.0,0.4950937041528787,2.6053068861583135,0.0,0.0,0.07717815759915156,0.9841736229544286,-0.6272350301416877,0.1383870643610982,0.0,0.0,0.6616375606902709,0.0,-0.03597032786379733,-0.45054975116504337,0.0,-1.005279595690015,0.18225602149825226,-1.5045802473220857,0.0,0.0,0.7083333333333334
0.09478954617991113,-0.0719268801075122,0.0011070355205961384,-0.02648457924793737,0.0,0.0,-0.8107695081552313,0.0,0.0,0.0,0.0,0.0,-1.5761849850013403,-0.1961859360033814,-0.5972637392075836,-0.10206568831396946,0.0,0.0,0.44119013593777034,2.50349412359656,0.0,0.0,0.08288383731034679,0.9471829810597568,-0.5974876534776352,0.13365437164301802,0.0,0.0,0.5299693938424122,0.0,0.0,-0.39798289442542606,0.0,-0.8092688958223867,0.16326444784979655,-1.4491504732288258,0.0,0.0,0.7083333333333334
0.09452979177073169,-0.07294543587852483,0.0,-0.02433663948522523,0.0,0.0,-0.7962421950206301,0.0,0.0,0.0,0.0,0.0,-1.570178508560864,-0.15393756227834066,-0.5158202598163311,-0.10724728878662149,0.0,0.0,0.39508668098144173,2.424838693717076,0.0,0.0,0.09110308138029825,0.9176867303698714,-0.5475298635103588,0.13091279364363959,0.0,0.0,0.4167322825022641,0.0,0.0,-0.368831671466071,0.0,-0.6502947857968588,0.15386983035818844,-1.3968367197949099,0.0,0.0,0.7083333333333334
0.09422802114227748,-0.07402266839883813,0.0,-0.02321667961169999,0.0,0.0,-0.779766484809471,0.0,0.0,0.0,0.0,0.0,-1.563293294535638,-0.11227823740943664,-0.4382272872987517,-0.1101425361446515,0.0,0.0,0.3530594978138797,2.3549167313812496,0.0,0.0,0.10017041152997265,0.8919906841882634,-0.5039115096378384,0.12445100641220494,0.0,0.0,0.3024638125326561,0.0,0.0,-0.34077251738544456,0.0,-0.5015883045422417,0.14221128584162046,-1.3524741353872083,0.0,0.0,0.7083333333333334
0.09400787479443574,-0.07514345152831316,0.0,-0.022132711932897807,0.0,0.0,-0.7635092716504289,0.0,0.0,0.0,0.0,0.0,-1.5587039036511408,-0.07129771098079477,-0.36177580794087844,-0.11350332526439,0.0,0.0,0.3119716464360914,2.288398416715156,0.0,0.0,0.10878402674635163,0.8673974895726351,-0.4626371684136908,0.11798665632514732,0.0,0.0,0.19089277226796197,0.0,0.0,-0.3137317559411563,0.0,-0.36138881934471745,0.13093519729746833,-1.3105101205500038,0.0,0.0,0.7083333333333334
0.09386696737573495,-0.07630865223949118,0.0,-0.021085573207778735,0.0,0.0,-0.7474262524836587,0.0,0.0,0.0,0.0,0.0,-1.5561827089425935,-0.030881559670596213,-0.2863474132646845,-0.11731964118480884,0.0,0.0,0.27169702282841474,2.224901074468522,0.0,0.0,0.11693245475127755,0.8437501673199835,-0.42336746443777695,0.11150156060710087,0.0,0.0,0.08178763621136166,0.0,0.0,-0.2876165051983269,0.0,-0.22893411787193244,0.12004531326213162,-1.2706365357181904,0.0,0.0,0.7083333333333334
0.09360718272483311,-0.0774016322579673,0.0,-0.020091043540645774,0.0,0.0,-0.7187640679014454,0.0,0.0,0.0,0.0,0.0,-1.5544909527737518,0.0,-0.22044900203192083,-0.1192220473748474,0.0,0.0,0.23099959900350336,2.1615749579342003,0.0,0.0,0.12132122099329433,0.8222864879734365,-0.38559261406045453,0.10520834266209235,0.0,0.0,0.0,0.0,0.0,-0.2621520893911135,0.0,-0.10213223022877696,0.10869156345858783,-1.2347374376993745,0.0,0.0,0.7083333333333334
0.09280699308380999,-0.078011149339981,0.0,-0.019252252079501885,0.0,0.0,-0.6514464699179517,0.0,0.0,0.0,0.0,0.0,-1.5496031261355585,0.0,-0.18516997759086598,-0.11341433977526563,0.0,0.0,0.18828147193811565,2.091681115222254,0.0,0.0,0.113229578692128,0.807742822109447,-0.3473007612378601,0.09753875579314414,0.0,0.0,0.0,0.0,0.0,-0.23830090949833846,0.0,0.0,0.09497984888869887,-1.2072139310729901,0.0,0.0,0.7083333333333334
0.09219518043285213,-0.07817856671003867,0.0,-0.01872454352406269,0.0,0.0,-0.5955008288448449,0.0,0.0,0.0,0.0,0.0,-1.5409523392301483,0.0,-0.15739832864909012,-0.10508920869623867,0.0,0.0,0.1506415114371818,2.0210996317969783,0.0,0.0,0.09754343430244555,0.8009541115140902,-0.3033186298041617,0.08112079213692033,0.0,0.0,0.0,0.0,0.0,-0.21832098523863497,0.0,0.0,0.08364414677709364,-1.1798919494271685,0.0,0.0,0.6666666666666666
0.09162904518390604,-0.07834831472740826,0.0,-0.018225002638413815,0.0,0.0,-0.5410467302256378,0.0,0.0,0.0,0.0,0.0,-1.5332051513782228,0.0,-0.1300694934391387,-0.09663261160717806,0.0,0.0,0.11356290339830592,1.9526565020821927,0.0,0.0,0.08202484333559802,0.7947376355356879,-0.26119947535192867,0.06475237575118484,0.0,0.0,0.0,0.0,0.0,-0.19902805440749696,0.0,0.0,0.0724022143093135,-1.1538403443414318,0.0,0.0,0.6666666666666666
0.09112362177212334,-0.0785430893687364,-9.016429045584764e-06,-0.017751466324649183,0.0,0.0,-0.4878432045336914,0.0,0.0,0.0,0.0,0.0,-1.526537466449996,0.0,-0.10311501385087976,-0.08819106108055856,0.0,0.0,0.0769549366468027,1.886159667429736,0.0,0.0,0.06675812772189436,0.789117950010703,-0.22062484959180276,0.048413911369588544,0.0,0.0,0.0,0.0,0.0,-0.18040219027601523,0.0,0.0,0.061231204296891446,-1.1286975161156525,0.0,0.0,0.6666666666666666
0.09074763339763267,-0.07875396469484705,-0.0005328267950656265,-0.016851162055491014,0.0,0.0,-0.43776160486688026,0.0,0.0,0.0,0.0,0.0,-1.5225610841592234,0.0,-0.07495757544392694,-0.08149154100067656,0.0,0.0,0.03967550288213761,1.8195247125989917,0.0,0.0,0.05139922720909318,0.7827100014807714,-0.17965850351169088,0.03389024748443829,0.0,0.0,0.0,0.0,0.0,-0.1625573161332188,0.0,0.0,0.051356502479194835,-1.1019133213743078,0.0,0.0,0.6666666666666666
0.09041141319998676,-0.07898255645376999,-0.001007546123904597,-0.01602026655967654,0.0,0.0,-0.38858330638196437,0.0,0.0,0.0,0.0,0.0,-1.519318017693182,0.0,-0.04728846743543947,-0.07466206032769564,0.0,0.0,0.002971118091789772,1.7548243140836783,0.0,0.0,0.03625796707964272,0.7769159405431262,-0.1402502697242622,0.01918623839627815,0.0,0.0,0.0,0.0,0.0,-0.14518172808573696,0.0,0.0,0.04141602202613714,-1.076263943308595,0.0,0.0,0.6666666666666666
0.08997767659492219,-0.07920224340459536,-0.0012528113713887732,-0.01547147738254396,0.0,0.0,-0.351527405019757,0.0,0.0,0.0,0.0,0.0,-1.512454903072126,0.0,-0.0251905848710285,-0.05886672470134031,0.0,0.0,0.0,1.7106679581168602,0.0,0.0,0.014604302744657887,0.7692799858949338,-0.10218854538309123,0.0,0.0,0.0,0.0,0.0,0.0,-0.12749800471583633,0.0,0.0,0.030228529024546508,-1.0523118730442151,0.0,0.0,0.6666666666666666
0.08964484497801842,-0.0795742355553253,-0.001730966237623278,-0.014714240536058994,0.0,0.0,-0.3274452511633803,0.0,0.0,0.0,0.0,0.0,-1.5054608209533171,0.0,-0.0052577494162606726,-0.04519251909359878,0.0,0.0,0.0,1.6715006185074657,0.0,0.0,0.0,0.7553849677917609,-0.056071770577386625,0.0,0.0,0.0,0.0,0.0,0.0,-0.11139601564248812,0.0,0.0,0.021723655854063283,-1.0275922249746459,0.0,0.0,0.6666666666666666
0.08939323504070457,-0.08019515388244622,-0.0019658675462483417,-0.014118922473594432,0.0,0.0,-0.3067588816680267,0.0,0.0,0.0,0.0,0.0,-1.493854319205885,0.0,0.0,-0.026929123901819806,0.0,0.0,0.0,1.6351389310051736,0.0,0.0,0.0,0.7423863111176993,-0.013248710450474564,0.0,0.0,0.0,0.0,0.0,0.0,-0.09397153089746613,0.0,0.0,0.013092516842421156,-1.0033483133927668,0.0,0.0,0.6666666666666666
0.08886883052553034,-0.08040975491178946,-0.0019665040810957573,-0.013848693836192878,0.0,0.0,-0.28391052211112394,0.0,0.0,0.0,0.0,0.0,-1.478905440547464,0.0,0.0,0.0,0.0,0.0,0.0,1.60811987674518,0.0,0.0,0.0,0.7280200510753773,0.0,0.0,0.0,0.0,0.0,0.0,0.0,-0.07596141227667591,0.0,0.0,0.007722250411064029,-0.9881371176999433,0.0,0.0,0.6666666666666666
0.08824490247467866,-0.08046471930629459,-0.001985748983979035,-0.013625938907046003,0.0,0.0,-0.25618374833175017,0.0,0.0,0.0,0.0,0.0,-1.4639843865887625,0.0,0.0,0.0,0.0,0.0,0.0,1.583977858838798,0.0,0.0,0.0,0.712768688649177,0.0,0.0,0.0,0.0,0.0,0.0,0.0,-0.06002773607415276,0.0,0.0,0.0032889679364942106,-0.9745823190675134,0.0,0.0,0.6666666666666666
0.08765711834981921,-0.08051832232735663,-0.0020154383224253933,-0.013409475209287387,0.0,0.0,-0.22980624397153776,0.0,0.0,0.0,0.0,0.0,-1.4493026662705202,0.0,0.0,0.0,0.0,0.0,0.0,1.5600275283039609,0.0,0.0,0.0,0.6974903343280955,0.0,0.0,0.0,0.0,0.0,0.0,0.0,-0.044386350443766875,0.0,0.0,0.0,-0.9611826702217972,0.0,0.0,0.6666666666666666
0.08710869944595373,-0.08058916506981484,-0.002075443129544312,-0.013167124910101437,0.0,0.0,-0.20513020704717866,0.0,0.0,0.0,0.0,0.0,-1.4342599666405211,0.0,0.0,0.0,0.0,0.0,0.0,1.5358407486840804,0.0,0.0,0.0,0.6813279135806459,0.0,0.0,0.0,0.0,0.0,0.0,0.0,-0.02889529926378471,0.0,0.0,0.0,-0.9476239688907522,0.0,0.0,0.6666666666666666
0.08659460264480408,-0.08065978372343992,-0.002132441051910762,-0.012949234772419672,0.0,0.0,-0.18131158611478795,0.0,0.0,0.0,0.0,0.0,-1.4197332635359774,0.0,0.0,0.0,0.0,0.0,0.0,1.5120675920651963,0.0,0.0,0.0,0.6655396768231471,0.0,0.0,0.0,0.0,0.0,0.0,0.0,-0.013738920442441177,0.0,0.0,0.0,-0.9343613344855988,0.0,0.0,0.6666666666666666
0.08610118216463554,-0.08071192081228687,-0.002182090136649491,-0.012758453861771312,0.0,0.0,-0.15819265987228412,0.0,0.0,0.0,0.0,0.0,-1.4055020021509788,0.0,0.0,0.0,0.0,0.0,0.0,1.4885143172750994,0.0,0.0,0.0,0.6499195804110294,0.0,0.0,0.0,0.0,0.0,0.0,0.0,0.0,0.0,0.0,0.0,-0.9213635227468544,0.0,0.0,0.6666666666666666
0.08567750660394015,-0.08073667076065195,-0.002224582042844354,-0.012700651369888448,0.0,0.0,-0.13395094878506647,0.0,0.0,0.0,0.0,0.0,-1.3911919567703972,0.0,0.0,0.0,0.0,0.0,0.0,1.4642057844394214,0.0,0.0,0.0,0.6326998235455608,0.0,0.0,0.0,0.0,0.0,0.0,0.0,0.0,0.0,0.0,0.0,-0.9071268868897328,0.0,0.0,0.6666666666666666
0.08527352184592463,-0.0807594708858578,-0.0022649824787642743,-0.012654595346083092,0.0,0.0,-0.11034762718245188,0.0,0.0,0.0,0.0,0.0,-1.3772588680687474,0.0,0.0,0.0,0.0,0.0,0.0,1.4402654128410253,0.0,0.0,0.0,0.6158221183785143,0.0,0.0,0.0,0.0,0.0,0.0,0.0,0.0,0.0,0.0,0.0,-0.8931905603733087,0.0,0.0,0.6666666666666666
0.08488873122567248,-0.08078203967537301,-0.0023019256259816357,-0.012621072240442352,0.0,0.0,-0.0873539354827016,0.0,0.0,0.0,0.0,0.0,-1.363646725232526,0.0,0.0,0.0,0.0,0.0,0.0,1.416703683509721,0.0,0.0,0.0,0.5992569457447019,0.0,0.0,0.0,0.0,0.0,0.0,0.0,0.0,0.0,0.0,0.0,-0.879550808562675,0.0,0.0,0.625
0.08451935169343872,-0.08080050438075286,-0.002336662500778457,-0.012596736406497404,0.0,0.0,-0.06494858832684815,0.0,0.0,0.0,0.0,0.0,-1.3503574099244098,0.0,0.0,0.0,0.0,0.0,0.0,1.3934445358387137,0.0,0.0,0.0,0.5829797440085365,0.0,0.0,0.0,0.0,0.0,0.0,0.0,0.0,0.0,0.0,0.0,-0.866164338966351,0.0,0.0,0.625
0.08416467831126732,-0.08081741889410085,-0.0023686899939601926,-0.012582146135988431,0.0,0.0,-0.04304747698829857,0.0,0.0,0.0,0.0,0.0,-1.3373266373542714,0.0,0.0,0.0,0.0,0.0,0.0,1.3705140992138423,0.0,0.0,0.0,0.5669778935189121,0.0,0.0,0.0,0.0,0.0,0.0,0.0,0.0,0.0,0.0,0.0,-0.8530860472670773,0.0,0.0,0.625
0.083827117011431,-0.08083559490085618,-0.0023999469644144693,-0.012575905901534677,0.0,0.0,-0.021654992069325807,0.0,0.0,0.0,0.0,0.0,-1.3246148082107876,0.0,0.0,0.0,0.0,0.0,0.0,1.3478977401021583,0.0,0.0,0.0,0.5512653910387738,0.0,0.0,0.0,0.0,0.0,0.0,0.0,0.0,0.0,0.0,0.0,-0.840214388860705,0.0,0.0,0.625
0.08350296619420067,-0.08085238168989765,-0.0024299844202977784,-0.012576768344300583,0.0,0.0,-0.000721899293901635,0.0,0.0,0.0,0.0,0.0,-1.3121705016639145,0.0,0.0,0.0,0.0,0.0,0.0,1.3255752381615242,0.0,0.0,0.0,0.5357887767749878,0.0,0.0,0.0,0.0,0.0,0.0,0.0,0.0,0.0,0.0,0.0,-0.8275896523513588,0.0,0.0,0.5833333333333334
0.08315575243736108,-0.08040879830197321,-0.002777556891508436,-0.01216783635918896,0.0,0.0,0.0,0.0,0.0,0.0,0.0,0.0,-1.2987416015671278,0.0,0.0,0.0,0.0,0.0,0.0,1.303136092632667,0.0,0.0,0.0,0.5249405583408728,0.0,0.0,0.0,0.0,0.0,0.0,0.0,0.0,0.0,0.0,0.0,-0.8139490815729196,0.0,0.0,0.5833333333333334
0.08281589527155077,-0.07995873600728558,-0.003131397495814675,-0.011751659881406753,0.0,0.0,0.0,0.0,0.0,0.0,0.0,0.0,-1.285476681660633,0.0,0.0,0.0,0.0,0.0,0.0,1.281007909495023,0.0,0.0,0.0,0.5143610053216602,0.0,0.0,0.0,0.0,0.0,0.0,0.0,0.0,0.0,0.0,0.0,-0.8004239379331384,0.0,0.0,0.5833333333333334
0.08247938425037755,-0.07951349161000765,-0.0034791984141279266,-0.01134137405965037,0.0,0.0,0.0,0.0,0.0,0.0,0.0,0.0,-1.272373935497853,0.0,0.0,0.0,0.0,0.0,0.0,1.2591673450405454,0.0,0.0,0.0,0.5038913423771518,0.0,0.0,0.0,0.0,0.0,0.0,0.0,0.0,0.0,0.0,0.0,-0.78708137142033,0.0,0.0,0.5833333333333334
0.08215110416678026,-0.07907856241519232,-0.0038203599569666367,-0.010940355797323985,0.0,0.0,0.0,0.0,0.0,0.0,0.0,0.0,-1.2594551254852289,0.0,0.0,0.0,0.0,0.0,0.0,1.2376379804243658,0.0,0.0,0.0,0.49354408906549746,0.0,0.0,0.0,0.0,0.0,0.0,0.0,0.0,0.0,0.0,0.0,-0.7738918120789153,0.0,0.0,0.5833333333333334
0.08182114068005633,-0.07864341213977384,-0.004153086077716692,-0.010544502844779946,0.0,0.0,0.0,0.0,0.0,0.0,0.0,0.0,-1.2466453605156866,0.0,0.0,0.0,0.0,0.0,0.0,1.2163624581400008,0.0,0.0,0.0,0.48327493518022996,0.0,0.0,0.0,0.0,0.0,0.0,0.0,0.0,0.0,0.0,0.0,-0.7609333771009874,0.0,0.0,0.5833333333333334
0.08149934331248825,-0.07821792215653557,-0.004481699465282999,-0.010155550078339317,0.0,0.0,0.0,0.0,0.0,0.0,0.0,0.0,-1.234024511830625,0.0,0.0,0.0,0.0,0.0,0.0,1.1953669029728002,0.0,0.0,0.0,0.47312714604773115,0.0,0.0,0.0,0.0,0.0,0.0,0.0,0.0,0.0,0.0,0.0,-0.748117058315841,0.0,0.0,0.5833333333333334
0.08118084800695409,-0.07779747544969072,-0.004804239450309778,-0.009772565095077984,0.0,0.0,0.0,0.0,0.0,0.0,0.0,0.0,-1.221531479217643,0.0,0.0,0.0,0.0,0.0,0.0,1.1746277430200056,0.0,0.0,0.0,0.4630658084354154,0.0,0.0,0.0,0.0,0.0,0.0,0.0,0.0,0.0,0.0,0.0,-0.7354624130580749,0.0,0.0,0.5833333333333334
0.0808701200122341,-0.077386376869085,-0.005119970473842058,-0.009398684794618433,0.0,0.0,0.0,0.0,0.0,0.0,0.0,0.0,-1.2092206028845511,0.0,0.0,0.0,0.0,0.0,0.0,1.1541526224447134,0.0,0.0,0.0,0.4531156224819787,0.0,0.0,0.0,0.0,0.0,0.0,0.0,0.0,0.0,0.0,0.0,-0.7229372645648862,0.0,0.0,0.5833333333333334
0.08056067379980203,-0.07697854488889924,-0.005430894765962813,-0.009027921090380718,0.0,0.0,0.0,0.0,0.0,0.0,0.0,0.0,-1.1970175748077754,0.0,0.0,0.0,0.0,0.0,0.0,1.1339160379618867,0.0,0.0,0.0,0.4432490378807528,0.0,0.0,0.0,0.0,0.0,0.0,0.0,0.0,0.0,0.0,0.0,-0.710593626582133,0.0,0.0,0.5833333333333334
0.08025834829864083,-0.07657822340543768,-0.005739590173533411,-0.008662591235639396,0.0,0.0,0.0,0.0,0.0,0.0,0.0,0.0,-1.1849981175726305,0.0,0.0,0.0,0.0,0.0,0.0,1.1139079205066083,0.0,0.0,0.0,0.433463067395996,0.0,0.0,0.0,0.0,0.0,0.0,0.0,0.0,0.0,0.0,0.0,-0.6983395232634317,0.0,0.0,0.5833333333333334
0.07995807271235772,-0.07618197217813105,-0.006039581867057897,-0.008304440708800351,0.0,0.0,0.0,0.0,0.0,0.0,0.0,0.0,-1.173088674709908,0.0,0.0,0.0,0.0,0.0,0.0,1.0941313661568022,0.0,0.0,0.0,0.42377516057331105,0.0,0.0,0.0,0.0,0.0,0.0,0.0,0.0,0.0,0.0,0.0,-0.6862594723834081,0.0,0.0,0.5833333333333334
0.0796630089209499,-0.07579195022783743,-0.00633853019815218,-0.007948934559376878,0.0,0.0,0.0,0.0,0.0,0.0,0.0,0.0,-1.1612961798439527,0.0,0.0,0.0,0.0,0.0,0.0,1.0745623055176317,0.0,0.0,0.0,0.41415060462787895,0.0,0.0,0.0,0.0,0.0,0.0,0.0,0.0,0.0,0.0,0.0,-0.6743004605151557,0.0,0.0,0.5833333333333334
0.07937166970211353,-0.0754069947223029,-0.0066321479866148095,-0.007598839053391262,0.0,0.0,0.0,0.0,0.0,0.0,0.0,0.0,-1.1496515835528593,0.0,0.0,0.0,0.0,0.0,0.0,1.0552063196254085,0.0,0.0,0.0,0.40461990197404535,0.0,0.0,0.0,0.0,0.0,0.0,0.0,0.0,0.0,0.0,0.0,-0.6624670122127022,0.0,0.0,0.5833333333333334
0.07908438904340619,-0.07502793267327743,-0.0069196594666162065,-0.0072553131522840025,0.0,0.0,0.0,0.0,0.0,0.0,0.0,0.0,-1.1381219169910637,0.0,0.0,0.0,0.0,0.0,0.0,1.0360593607399844,0.0,0.0,0.0,0.39517485379027495,0.0,0.0,0.0,0.0,0.0,0.0,0.0,0.0,0.0,0.0,0.0,-0.650757430793667,0.0,0.0,0.5416666666666666
0.07880158992405803,-0.07465420127158692,-0.0072052665604266436,-0.006914836074798429,0.0,0.0,0.0,0.0,0.0,0.0,0.0,0.0,-1.1267204289921706,0.0,0.0,0.0,0.0,0.0,0.0,1.0171054556674632,0.0,0.0,0.0,0.3858074832167527,0.0,0.0,0.0,0.0,0.0,0.0,0.0,0.0,0.0,0.0,0.0,-0.639155231915787,0.0,0.0,0.5416666666666666
0.07852290370720545,-0.07428577622577683,-0.00748664045380076,-0.006578803617823365,0.0,0.0,0.0,0.0,0.0,0.0,0.0,0.0,-1.1154351919753647,0.0,0.0,0.0,0.0,0.0,0.0,0.9983463189658791,0.0,0.0,0.0,0.37650431566009496,0.0,0.0,0.0,0.0,0.0,0.0,0.0,0.0,0.0,0.0,0.0,-0.6276777148327625,0.0,0.0,0.5416666666666666
0.07824668924990046,-0.07392121752763112,-0.00776426304902971,-0.006246541742555842,0.0,0.0,0.0,0.0,0.0,0.0,0.0,0.0,-1.1042567192826187,0.0,0.0,0.0,0.0,0.0,0.0,0.9797688156052613,0.0,0.0,0.0,0.3672780369301213,0.0,0.0,0.0,0.0,0.0,0.0,0.0,0.0,0.0,0.0,0.0,-0.6163029764331341,0.0,0.0,0.5416666666666666
0.07797617268411969,-0.07356338082709847,-0.008039686542987222,-0.005918030462740347,0.0,0.0,0.0,0.0,0.0,0.0,0.0,0.0,-1.0932084455695161,0.0,0.0,0.0,0.0,0.0,0.0,0.9613596802025716,0.0,0.0,0.0,0.3581255492358953,0.0,0.0,0.0,0.0,0.0,0.0,0.0,0.0,0.0,0.0,0.0,-0.6050155500985643,0.0,0.0,0.5416666666666666
0.07770756132823323,-0.07320840659014964,-0.008309766232620027,-0.005594087236964259,0.0,0.0,0.0,0.0,0.0,0.0,0.0,0.0,-1.082241058181067,0.0,0.0,0.0,0.0,0.0,0.0,0.9431265201583083,0.0,0.0,0.0,0.3490277124997563,0.0,0.0,0.0,0.0,0.0,0.0,0.0,0.0,0.0,0.0,0.0,-0.5938552435722884,0.0,0.0,0.5416666666666666
0.07744396805956827,-0.07285991142662694,-0.008577163951031199,-0.005274318462800539,0.0,0.0,0.0,0.0,0.0,0.0,0.0,0.0,-1.0714062031596496,0.0,0.0,0.0,0.0,0.0,0.0,0.9250732643027934,0.0,0.0,0.0,0.3400092284941029,0.0,0.0,0.0,0.0,0.0,0.0,0.0,0.0,0.0,0.0,0.0,-0.5827781842182522,0.0,0.0,0.5416666666666666
0.07718256994399984,-0.0725142564909566,-0.008842808984033992,-0.004956208825334992,0.0,0.0,0.0,0.0,0.0,0.0,0.0,0.0,-1.060650822074182,0.0,0.0,0.0,0.0,0.0,0.0,0.9071617829529832,0.0,0.0,0.0,0.33103482183218713,0.0,0.0,0.0,0.0,0.0,0.0,0.0,0.0,0.0,0.0,0.0,-0.5718092648531136,0.0,0.0,0.5416666666666666
0.07692516563896863,-0.07217364896713185,-0.0091045650578545,-0.004642364136725664,0.0,0.0,0.0,0.0,0.0,0.0,0.0,0.0,-1.0500059509726347,0.0,0.0,0.0,0.0,0.0,0.0,0.8894155147734611,0.0,0.0,0.0,0.32213516519832536,0.0,0.0,0.0,0.0,0.0,0.0,0.0,0.0,0.0,0.0,0.0,-0.5609295971271662,0.0,0.0,0.5416666666666666
0.0766726895064737,-0.07183929158249579,-0.0093635032013084,-0.004332625085202567,0.0,0.0,0.0,0.0,0.0,0.0,0.0,0.0,-1.03946611352894,0.0,0.0,0.0,0.0,0.0,0.0,0.8718196940032295,0.0,0.0,0.0,0.31329997918207964,0.0,0.0,0.0,0.0,0.0,0.0,0.0,0.0,0.0,0.0,0.0,-0.5501117030029412,0.0,0.0,0.5416666666666666
0.07642158828799618,-0.07150714072410548,-0.009619974004592585,-0.0040247032315278404,0.0,0.0,0.0,0.0,0.0,0.0,0.0,0.0,-1.0290117088489528,0.0,0.0,0.0,0.0,0.0,0.0,0.8543555492671936,0.0,0.0,0.0,0.3045188013777812,0.0,0.0,0.0,0.0,0.0,0.0,0.0,0.0,0.0,0.0,0.0,-0.5394058969632272,0.0,0.0,0.5416666666666666
0.0761755498108898,-0.07118067944568236,-0.009875060350809284,-0.0037198742733888664,0.0,0.0,0.0,0.0,0.0,0.0,0.0,0.0,-1.0186624491987437,0.0,0.0,0.0,0.0,0.0,0.0,0.837047587843219,0.0,0.0,0.0,0.2957879627015123,0.0,0.0,0.0,0.0,0.0,0.0,0.0,0.0,0.0,0.0,0.0,-0.5287608975135697,0.0,0.0,0.5416666666666666
0.07593226927024023,-0.07085821100962078,-0.010127992185329289,-0.0034172393326268365,0.0,0.0,0.0,0.0,0.0,0.0,0.0,0.0,-1.0084012099037178,0.0,0.0,0.0,0.0,0.0,0.0,0.8198615093848383,0.0,0.0,0.0,0.2871140265797398,0.0,0.0,0.0,0.0,0.0,0.0,0.0,0.0,0.0,0.0,0.0,-0.5182025951711615,0.0,0.0,0.5833333333333334
0.07569110805324145,-0.07053856067279911,-0.010377203734415717,-0.0031176898598380626,0.0,0.0,0.0,0.0,0.0,0.0,0.0,0.0,-0.9982123191862954,0.0,0.0,0.0,0.0,0.0,0.0,0.8028190815492637,0.0,0.0,0.0,0.27848543811512827,0.0,0.0,0.0,0.0,0.0,0.0,0.0,0.0,0.0,0.0,0.0,-0.5077324371340562,0.0,0.0,0.5833333333333334
0.07545279136407847,-0.07022293003779906,-0.010624879103201685,-0.0028201153479502743,0.0,0.0,0.0,0.0,0.0,0.0,0.0,0.0,-0.9881178861139693,0.0,0.0,0.0,0.0,0.0,0.0,0.7858904451701754,0.0,0.0,0.0,0.2699188976208388,0.0,0.0,0.0,0.0,0.0,0.0,0.0,0.0,0.0,0.0,0.0,-0.4973304008288273,0.0,0.0,0.5833333333333334
0.07522115786629391,-0.06991474852821884,-0.010871034737680753,-0.0025266277700115337,0.0,0.0,0.0,0.0,0.0,0.0,0.0,0.0,-0.9781321444642329,0.0,0.0,0.0,0.0,0.0,0.0,0.769089505148545,0.0,0.0,0.0,0.26140444487537934,0.0,0.0,0.0,0.0,0.0,0.0,0.0,0.0,0.0,0.0,0.0,-0.4869633608673207,0.0,0.0,0.5833333333333334
0.07499043426977384,-0.06960810909170885,-0.0111154907612341,-0.002234114904668319,0.0,0.0,0.0,0.0,0.0,0.0,0.0,0.0,-0.9682043457084186,0.0,0.0,0.0,0.0,0.0,0.0,0.7524106152807544,0.0,0.0,0.0,0.25293632293120627,0.0,0.0,0.0,0.0,0.0,0.0,0.0,0.0,0.0,0.0,0.0,-0.4766947369179923,0.0,0.0,0.5833333333333334
0.07476255480267742,-0.06930510377408865,-0.011356772732617874,-0.0019444085970696835,0.0,0.0,0.0,0.0,0.0,0.0,0.0,0.0,-0.9583618245751693,0.0,0.0,0.0,0.0,0.0,0.0,0.7358436452661324,0.0,0.0,0.0,0.24451119281339162,0.0,0.0,0.0,0.0,0.0,0.0,0.0,0.0,0.0,0.0,0.0,-0.46649165993171426,0.0,0.0,0.5833333333333334
0.07453878179648032,-0.0690072505776959,-0.011597312192832753,-0.0016566308127575486,0.0,0.0,0.0,0.0,0.0,0.0,0.0,0.0,-0.9486060829805442,0.0,0.0,0.0,0.0,0.0,0.0,0.7193858433803632,0.0,0.0,0.0,0.23613757154986278,0.0,0.0,0.0,0.0,0.0,0.0,0.0,0.0,0.0,0.0,0.0,-0.4563416145876932,0.0,0.0,0.5833333333333334
0.07431619610873262,-0.06871142547356382,-0.01183629473868584,-0.0013699150911754526,0.0,0.0,0.0,0.0,0.0,0.0,0.0,0.0,-0.9389146361573294,0.0,0.0,0.0,0.0,0.0,0.0,0.7030350537408608,0.0,0.0,0.0,0.22779246490453045,0.0,0.0,0.0,0.0,0.0,0.0,0.0,0.0,0.0,0.0,0.0,-0.44625545308927067,0.0,0.0,0.5833333333333334
0.07409833311716782,-0.06842055983435291,-0.012073534073767508,-0.0010866106398675736,0.0,0.0,0.0,0.0,0.0,0.0,0.0,0.0,-0.9293097425836916,0.0,0.0,0.0,0.0,0.0,0.0,0.6867856385333508,0.0,0.0,0.0,0.21950445378896769,0.0,0.0,0.0,0.0,0.0,0.0,0.0,0.0,0.0,0.0,0.0,-0.43622530171280205,0.0,0.0,0.5833333333333334
0.07388343507985107,-0.06813413498582925,-0.012308577672826919,-0.0008052039038922495,0.0,0.0,0.0,0.0,0.0,0.0,0.0,0.0,-0.9197805077505817,0.0,0.0,0.0,0.0,0.0,0.0,0.6706400486602003,0.0,0.0,0.0,0.21126652249745995,0.0,0.0,0.0,0.0,0.0,0.0,0.0,0.0,0.0,0.0,0.0,-0.4262490863088029,0.0,0.0,0.5833333333333334
0.07366988396979025,-0.0678492908121116,-0.012543001964769368,-0.0005243722911534959,0.0,0.0,0.0,0.0,0.0,0.0,0.0,0.0,-0.9103113717142624,0.0,0.0,0.0,0.0,0.0,0.0,0.6545857687978403,0.0,0.0,0.0,0.20305078594348913,0.0,0.0,0.0,0.0,0.0,0.0,0.0,0.0,0.0,0.0,0.0,-0.41633724156914625,0.0,0.0,0.5833333333333334
0.07346073096748867,-0.06756951053255981,-0.012775369717292382,-0.0002464483191587473,0.0,0.0,0.0,0.0,0.0,0.0,0.0,0.0,-0.9009126615733222,0.0,0.0,0.0,0.0,0.0,0.0,0.6386287653178687,0.0,0.0,0.0,0.19488328166241115,0.0,0.0,0.0,0.0,0.0,0.0,0.0,0.0,0.0,0.0,0.0,-0.40647064516656584,0.0,0.0,0.5833333333333334
0.0732560211004711,-0.06729628960853737,-0.012981091107744288,0.0,0.0,0.0,0.0,0.0,0.0,0.0,0.0,0.0,-0.8915218158927842,0.0,0.0,0.0,0.0,0.0,0.0,0.6228489088500658,0.0,0.0,0.0,0.18679001808080348,0.0,0.0,0.0,0.0,0.0,0.0,0.0,0.0,0.0,0.0,0.0,-0.3967103310283117,0.0,0.0,0.5833333333333334
0.07307975530878909,-0.06706438292828805,-0.012981585404985958,0.0,0.0,0.0,0.0,0.0,0.0,0.0,0.0,0.0,-0.8816358546727919,0.0,0.0,0.0,0.0,0.0,0.0,0.6078801516640103,0.0,0.0,0.0,0.17907228848027815,0.0,0.0,0.0,0.0,0.0,0.0,0.0,0.0,0.0,0.0,0.0,-0.387353873385303,0.0,0.0,0.5833333333333334
0.07290477778582322,-0.06683441564490926,-0.012981753041708925,0.0,0.0,0.0,0.0,0.0,0.0,0.0,0.0,0.0,-0.8718209648284827,0.0,0.0,0.0,0.0,0.0,0.0,0.592998682626857,0.0,0.0,0.0,0.1713880690669103,0.0,0.0,0.0,0.0,0.0,0.0,0.0,0.0,0.0,0.0,0.0,-0.3780487466473068,0.0,0.0,0.5833333333333334
0.07273344216276736,-0.06660877274707935,-0.012982386416124014,0.0,0.0,0.0,0.0,0.0,0.0,0.0,0.0,0.0,-0.8620698741426558,0.0,0.0,0.0,0.0,0.0,0.0,0.5782034179935039,0.0,0.0,0.0,0.1637457296302774,0.0,0.0,0.0,0.0,0.0,0.0,0.0,0.0,0.0,0.0,0.0,-0.36877745198041856,0.0,0.0,0.5833333333333334
0.0725636294791326,-0.06638531017745214,-0.012982670491746607,0.0,0.0,0.0,0.0,0.0,0.0,0.0,0.0,0.0,-0.8523444218332581,0.0,0.0,0.0,0.0,0.0,0.0,0.5634818316799289,0.0,0.0,0.0,0.1561222765068701,0.0,0.0,0.0,0.0,0.0,0.0,0.0,0.0,0.0,0.0,0.0,-0.35957484134605633,0.0,0.0,0.5833333333333334
0.07239786576703866,-0.06616632437855922,-0.012983856737015746,0.0,0.0,0.0,0.0,0.0,0.0,0.0,0.0,0.0,-0.8427182556159704,0.0,0.0,0.0,0.0,0.0,0.0,0.5488434326015931,0.0,0.0,0.0,0.14854420225342277,0.0,0.0,0.0,0.0,0.0,0.0,0.0,0.0,0.0,0.0,0.0,-0.3503878392586849,0.0,0.0,0.5833333333333334
0.07223430217631475,-0.06595019558442086,-0.012985400077473284,0.0,0.0,0.0,0.0,0.0,0.0,0.0,0.0,0.0,-0.8331373166855757,0.0,0.0,0.0,0.0,0.0,0.0,0.534273707555365,0.0,0.0,0.0,0.14099145064385415,0.0,0.0,0.0,0.0,0.0,0.0,0.0,0.0,0.0,0.0,0.0,-0.341235180442724,0.0,0.0,0.5833333333333334
0.07207300432603106,-0.06573711049039066,-0.01298642768932601,0.0,0.0,0.0,0.0,0.0,0.0,0.0,0.0,0.0,-0.823612156814932,0.0,0.0,0.0,0.0,0.0,0.0,0.519775452238814,0.0,0.0,0.0,0.1334700630684797,0.0,0.0,0.0,0.0,0.0,0.0,0.0,0.0,0.0,0.0,0.0,-0.33213053927303665,0.0,0.0,0.5833333333333334
0.07191529457586655,-0.06552839633935692,-0.01298882529088501,0.0,0.0,0.0,0.0,0.0,0.0,0.0,0.0,0.0,-0.8141347563268325,0.0,0.0,0.0,0.0,0.0,0.0,0.5053531957880519,0.0,0.0,0.0,0.12597884470300494,0.0,0.0,0.0,0.0,0.0,0.0,0.0,0.0,0.0,0.0,0.0,-0.3230532897756009,0.0,0.0,0.5833333333333334
0.07175872496973197,-0.06532114866132892,-0.01299071011990482,0.0,0.0,0.0,0.0,0.0,0.0,0.0,0.0,0.0,-0.8046965289133949,0.0,0.0,0.0,0.0,0.0,0.0,0.49098962891526093,0.0,0.0,0.0,0.11851100336512133,0.0,0.0,0.0,0.0,0.0,0.0,0.0,0.0,0.0,0.0,0.0,-0.31402371098243265,0.0,0.0,0.5833333333333334
0.07160541422486112,-0.06511783797310733,-0.012992634654368418,0.0,0.0,0.0,0.0,0.0,0.0,0.0,0.0,0.0,-0.7953356989123079,0.0,0.0,0.0,0.0,0.0,0.0,0.4766907490703348,0.0,0.0,0.0,0.11108155964187628,0.0,0.0,0.0,0.0,0.0,0.0,0.0,0.0,0.0,0.0,0.0,-0.3050093769360591,0.0,0.0,0.5833333333333334
0.0714547372882841,-0.06491774835856305,-0.012995277355749141,0.0,0.0,0.0,0.0,0.0,0.0,0.0,0.0,0.0,-0.7860094298825798,0.0,0.0,0.0,0.0,0.0,0.0,0.4624725817140843,0.0,0.0,0.0,0.10366910204413055,0.0,0.0,0.0,0.0,0.0,0.0,0.0,0.0,0.0,0.0,0.0,-0.29603855080639163,0.0,0.0,0.5833333333333334
0.07130881015342604,-0.06472299101557191,-0.012999648803484918,0.0,0.0,0.0,0.0,0.0,0.0,0.0,0.0,0.0,-0.7767578672412164,0.0,0.0,0.0,0.0,0.0,0.0,0.44830642740933746,0.0,0.0,0.0,0.09628237344482868,0.0,0.0,0.0,0.0,0.0,0.0,0.0,0.0,0.0,0.0,0.0,-0.287072648733384,0.0,0.0,0.5833333333333334
0.07116082034989392,-0.06452694214253231,-0.013001202320741248,0.0,0.0,0.0,0.0,0.0,0.0,0.0,0.0,0.0,-0.76751439959814,0.0,0.0,0.0,0.0,0.0,0.0,0.4341963628994658,0.0,0.0,0.0,0.0889209530052838,0.0,0.0,0.0,0.0,0.0,0.0,0.0,0.0,0.0,0.0,0.0,-0.2781813764250229,0.0,0.0,0.5833333333333334
0.07101544705987994,-0.0643338296520856,-0.01300337177252935,0.0,0.0,0.0,0.0,0.0,0.0,0.0,0.0,0.0,-0.7583110753784524,0.0,0.0,0.0,0.0,0.0,0.0,0.4201360042559125,0.0,0.0,0.0,0.08157336044643054,0.0,0.0,0.0,0.0,0.0,0.0,0.0,0.0,0.0,0.0,0.0,-0.26931206321638607,0.0,0.0,0.5833333333333334
0.0708753680555342,-0.0641459923574736,-0.013007692444382948,0.0,0.0,0.0,0.0,0.0,0.0,0.0,0.0,0.0,-0.7491888816419762,0.0,0.0,0.0,0.0,0.0,0.0,0.40613516234051883,0.0,0.0,0.0,0.07426536839876435,0.0,0.0,0.0,0.0,0.0,0.0,0.0,0.0,0.0,0.0,0.0,-0.2604535819757089,0.0,0.0,0.5833333333333334
0.07073669903893522,-0.0639610764453684,-0.013011121622344298,0.0,0.0,0.0,0.0,0.0,0.0,0.0,0.0,0.0,-0.740088879398902,0.0,0.0,0.0,0.0,0.0,0.0,0.3921856452818271,0.0,0.0,0.0,0.06697031905295842,0.0,0.0,0.0,0.0,0.0,0.0,0.0,0.0,0.0,0.0,0.0,-0.25161992478470224,0.0,0.0,0.5833333333333334
0.07060136206947489,-0.06377958247635548,-0.013015378591011111,0.0,0.0,0.0,0.0,0.0,0.0,0.0,0.0,0.0,-0.7310367912576785,0.0,0.0,0.0,0.0,0.0,0.0,0.378290384930202,0.0,0.0,0.0,0.05969950440901386,0.0,0.0,0.0,0.0,0.0,0.0,0.0,0.0,0.0,0.0,0.0,-0.24279875234944512,0.0,0.0,0.5833333333333334
